{"learner":{"attributes":{"scikit_learn":"{\"_estimator_type\": \"regressor\"}"},"feature_names":["inflation_rate","open","high","low","volume"],"feature_types":["float","float","float","float","float"],"gradient_booster":{"model":{"gbtree_model_param":{"num_parallel_tree":"1","num_trees":"100"},"iteration_indptr":[0,1,2,3,4,5,6,7,8,9,10,11,12,13,14,15,16,17,18,19,20,21,22,23,24,25,26,27,28,29,30,31,32,33,34,35,36,37,38,39,40,41,42,43,44,45,46,47,48,49,50,51,52,53,54,55,56,57,58,59,60,61,62,63,64,65,66,67,68,69,70,71,72,73,74,75,76,77,78,79,80,81,82,83,84,85,86,87,88,89,90,91,92,93,94,95,96,97,98,99,100],"tree_info":[0,0,0,0,0,0,0,0,0,0,0,0,0,0,0,0,0,0,0,0,0,0,0,0,0,0,0,0,0,0,0,0,0,0,0,0,0,0,0,0,0,0,0,0,0,0,0,0,0,0,0,0,0,0,0,0,0,0,0,0,0,0,0,0,0,0,0,0,0,0,0,0,0,0,0,0,0,0,0,0,0,0,0,0,0,0,0,0,0,0,0,0,0,0,0,0,0,0,0,0],"trees":[{"base_weights":[6.970968E-5,-1.672939E2,2.1841776E2,-3.419607E2,-5.090133E1,1.0577604E2,2.766822E2,-1.1437108E2,-2.4637108E2,-7.833173E1,-6.8071685E0,5.0549248E1,1.3133185E2,2.5513571E2,1.0559431E2,-7.94243E1,-6.8724075E1,-4.9488358E1,-7.1198395E1,-3.250836E1,4.5768356E0,3.665299E1,6.373104E1,1.1163563E2,1.7547427E2,2.344844E2,2.7028104E2,-8.585098E1,-5.4455822E1,-1.1268425E1,-2.5712069E1,-4.246059E0,1.3666989E1,3.1049845E1,4.0745037E1,5.7624863E1,7.461105E1,3.1436558E1,3.519614E1,4.24141E1,5.375317E1,6.0657284E1,7.165377E1,7.925281E1,8.60568E1,-2.9890375E1,-2.3958052E1,-1.85156E1,-1.47650795E1,-7.889028E0,-5.230042E-1,-3.0710514E0,-5.22678E-1,2.4168886E1,3.6958344E0,9.641194E0,1.2769959E0,1.112126E1,1.3823792E1,1.7392729E1,2.8013306E0,2.2602615E1,5.0513306E0],"categories":[],"categories_nodes":[],"categories_segments":[],"categories_sizes":[],"default_left":[0,0,0,0,0,0,0,0,0,0,0,0,0,0,0,0,0,0,0,0,0,0,0,0,0,0,0,0,0,0,0,0,0,0,0,0,0,0,0,0,0,0,0,0,0,0,0,0,0,0,0,0,0,0,0,0,0,0,0,0,0,0,0],"id":0,"left_children":[1,3,5,7,9,11,13,-1,15,17,19,21,23,25,-1,-1,-1,-1,27,29,31,33,35,37,39,41,43,45,47,-1,49,51,53,55,57,59,61,-1,-1,-1,-1,-1,-1,-1,-1,-1,-1,-1,-1,-1,-1,-1,-1,-1,-1,-1,-1,-1,-1,-1,-1,-1,-1],"loss_changes":[2.5610858E8,8.0672024E7,1.9922288E7,5.864304E6,2.881754E6,1.45836E6,3.159904E6,0E0,8.7104E4,8.96034E5,2.6786178E5,5.8112625E4,5.96843E5,4.24864E5,0E0,0E0,0E0,0E0,3.28718E5,8.6843125E3,5.098596E4,2.4722188E3,6.8616875E3,6.896E3,2.064E3,4.5792E4,1.4684E4,5.17445E4,2.1199875E4,0E0,1.6779062E3,4.8270703E3,2.7222922E4,1.9901875E3,7.5296875E1,1.3563438E3,1.1386562E3,0E0,0E0,0E0,0E0,0E0,0E0,0E0,0E0,0E0,0E0,0E0,0E0,0E0,0E0,0E0,0E0,0E0,0E0,0E0,0E0,0E0,0E0,0E0,0E0,0E0,0E0],"parents":[2147483647,0,0,1,1,2,2,3,3,4,4,5,5,6,6,8,8,9,9,10,10,11,11,12,12,13,13,18,18,19,19,20,20,21,21,22,22,23,23,24,24,25,25,26,26,27,27,28,28,30,30,31,31,32,32,33,33,34,34,35,35,36,36],"right_children":[2,4,6,8,10,12,14,-1,16,18,20,22,24,26,-1,-1,-1,-1,28,30,32,34,36,38,40,42,44,46,48,-1,50,52,54,56,58,60,62,-1,-1,-1,-1,-1,-1,-1,-1,-1,-1,-1,-1,-1,-1,-1,-1,-1,-1,-1,-1,-1,-1,-1,-1,-1,-1],"split_conditions":[2.423E3,2.205E3,2.581E3,2.062E3,2.346E3,2.479E3,2.694E3,-1.1437108E2,2.149E3,2.27E3,2.368E3,2.442E3,2.52E3,2.64E3,1.0559431E2,-7.94243E1,-6.8724075E1,-4.9488358E1,2.318E3,2.363E3,2.399E3,2.423E3,2.453E3,2.499E3,2.561E3,2.606E3,2.665E3,2.305E3,2.332E3,-1.1268425E1,2.711043E2,2.389E3,2.376E3,2.436E3,2.439E3,2.484E3,2.4791113E-1,3.1436558E1,3.519614E1,4.24141E1,5.375317E1,6.0657284E1,7.165377E1,7.925281E1,8.60568E1,-2.9890375E1,-2.3958052E1,-1.85156E1,-1.47650795E1,-7.889028E0,-5.230042E-1,-3.0710514E0,-5.22678E-1,2.4168886E1,3.6958344E0,9.641194E0,1.2769959E0,1.112126E1,1.3823792E1,1.7392729E1,2.8013306E0,2.2602615E1,5.0513306E0],"split_indices":[2,1,3,3,3,3,3,0,2,2,3,1,3,3,0,0,0,0,3,2,2,3,3,3,2,3,3,2,3,0,4,2,3,1,2,1,0,0,0,0,0,0,0,0,0,0,0,0,0,0,0,0,0,0,0,0,0,0,0,0,0,0,0],"split_type":[0,0,0,0,0,0,0,0,0,0,0,0,0,0,0,0,0,0,0,0,0,0,0,0,0,0,0,0,0,0,0,0,0,0,0,0,0,0,0,0,0,0,0,0,0,0,0,0,0,0,0,0,0,0,0,0,0,0,0,0,0,0,0],"sum_hessian":[7.007E3,3.968E3,3.039E3,1.586E3,2.382E3,1.037E3,2.002E3,1.122E3,4.64E2,1.468E3,9.14E2,3.29E2,7.08E2,1.56E3,4.42E2,2.18E2,2.46E2,1.1E2,1.358E3,2.8E2,6.34E2,1.62E2,1.67E2,4.92E2,2.16E2,6.67E2,8.93E2,7.22E2,6.36E2,1.58E2,1.22E2,3.22E2,3.12E2,7.2E1,9E1,1.11E2,5.6E1,2.32E2,2.6E2,2.5E1,1.91E2,8.5E1,5.82E2,6.65E2,2.28E2,2.14E2,5.08E2,2.62E2,3.74E2,1.19E2,3E0,9.4E1,2.28E2,5E0,3.07E2,6.9E1,3E0,5.8E1,3.2E1,1.1E2,1E0,5.5E1,1E0],"tree_param":{"num_deleted":"0","num_feature":"5","num_nodes":"63","size_leaf_vector":"1"}},{"base_weights":[3.647941E-2,-1.20171104E2,1.4935382E2,-2.413171E2,-3.8712193E1,6.482047E1,1.9146785E2,-2.659052E2,-1.7187129E2,-6.526601E1,-1.6834808E1,2.9527344E1,8.540348E1,1.7702328E2,2.4972804E2,-8.162453E1,-7.39089E1,-5.2828598E1,-4.6158245E1,-1.1910649E2,-5.7115498E1,-3.1017817E1,4.8540592E-1,2.2711763E1,4.1699253E1,7.714109E1,3.512273E1,1.5581114E2,1.8759418E2,6.847894E1,7.692529E1,-3.7615807E1,-2.6663788E1,-6.5509224E1,-4.960597E1,-3.4471947E1,-2.2192865E1,-4.7688823E0,5.774618E0,1.6693943E1,2.7128757E1,4.1889145E1,2.3811402E0,6.900266E1,2.431764E1,4.02591E1,4.877412E1,5.375827E1,5.8919594E1,-2.2186472E1,-1.8473011E1,-1.5773291E1,-1.31776705E1,-1.1011737E1,-8.8266535E0,-7.465597E0,-5.352935E0,-2.6440296E0,-5.657563E-1,1.0198263E1,1.2934998E0,1.068498E1,4.6871047E0,7.0567737E0,9.311643E0,7.7012696E0,1.2732063E1,2.0833326E1,6.069727E0],"categories":[],"categories_nodes":[],"categories_segments":[],"categories_sizes":[],"default_left":[0,0,0,0,0,0,0,0,0,0,0,0,0,0,0,0,0,0,0,0,0,0,0,0,0,0,0,0,0,0,0,0,0,0,0,0,0,0,0,0,0,0,0,0,0,0,0,0,0,0,0,0,0,0,0,0,0,0,0,0,0,0,0,0,0,0,0,0,0],"id":1,"left_children":[1,3,5,7,9,11,13,15,17,19,21,23,25,27,29,-1,-1,-1,-1,31,33,35,37,39,41,43,-1,45,47,-1,-1,-1,-1,49,51,53,55,57,59,61,63,65,-1,67,-1,-1,-1,-1,-1,-1,-1,-1,-1,-1,-1,-1,-1,-1,-1,-1,-1,-1,-1,-1,-1,-1,-1,-1,-1],"loss_changes":[1.2580508E8,3.8309744E7,1.1116272E7,2.619768E6,1.3483975E6,7.537005E5,1.711256E6,7.1896E4,4.174E3,4.535265E5,3.1322234E5,3.0992031E4,1.62898E5,3.4636E5,6.3E2,0E0,0E0,0E0,0E0,1.4860125E4,5.429925E4,2.0603125E4,1.6007391E4,6.165703E3,5.458281E2,1.1114E4,0E0,6.0554E4,4.712E4,0E0,0E0,0E0,0E0,9.66125E3,5.89425E3,4.5828125E3,1.8982812E3,3.3532778E3,1.1701913E4,1.6307734E3,1.2721328E3,1.26015625E2,0E0,2.408375E3,0E0,0E0,0E0,0E0,0E0,0E0,0E0,0E0,0E0,0E0,0E0,0E0,0E0,0E0,0E0,0E0,0E0,0E0,0E0,0E0,0E0,0E0,0E0,0E0,0E0],"parents":[2147483647,0,0,1,1,2,2,3,3,4,4,5,5,6,6,7,7,8,8,9,9,10,10,11,11,12,12,13,13,14,14,19,19,20,20,21,21,22,22,23,23,24,24,25,25,27,27,28,28,33,33,34,34,35,35,36,36,37,37,38,38,39,39,40,40,41,41,43,43],"right_children":[2,4,6,8,10,12,14,16,18,20,22,24,26,28,30,-1,-1,-1,-1,32,34,36,38,40,42,44,-1,46,48,-1,-1,-1,-1,50,52,54,56,58,60,62,64,66,-1,68,-1,-1,-1,-1,-1,-1,-1,-1,-1,-1,-1,-1,-1,-1,-1,-1,-1,-1,-1,-1,-1,-1,-1,-1,-1],"split_conditions":[2.415E3,2.172E3,2.569E3,2.101E3,2.337E3,2.46E3,2.715E3,2.016E3,2.155E3,2.27E3,2.365E3,2.442E3,2.52E3,2.632E3,2.737E3,-8.162453E1,-7.39089E1,-5.2828598E1,-4.6158245E1,2.239E3,2.314E3,2.357E3,2.396E3,2.415E3,2.484E3,2.495E3,3.512273E1,2.592E3,2.655E3,6.847894E1,7.692529E1,-3.7615807E1,-2.6663788E1,2.294E3,2.327E3,2.342E3,2.356E3,2.381E3,-1.7006803E-1,-4.8867586E-1,2.434E3,2.423E3,2.3811402E0,3.518022E2,2.431764E1,4.02591E1,4.877412E1,5.375827E1,5.8919594E1,-2.2186472E1,-1.8473011E1,-1.5773291E1,-1.31776705E1,-1.1011737E1,-8.8266535E0,-7.465597E0,-5.352935E0,-2.6440296E0,-5.657563E-1,1.0198263E1,1.2934998E0,1.068498E1,4.6871047E0,7.0567737E0,9.311643E0,7.7012696E0,1.2732063E1,2.0833326E1,6.069727E0],"split_indices":[2,3,3,1,2,3,2,3,3,2,3,1,3,3,3,0,0,0,0,2,2,2,2,3,1,3,0,3,3,0,0,0,0,1,2,3,3,3,0,0,2,3,0,4,0,0,0,0,0,0,0,0,0,0,0,0,0,0,0,0,0,0,0,0,0,0,0,0,0],"split_type":[0,0,0,0,0,0,0,0,0,0,0,0,0,0,0,0,0,0,0,0,0,0,0,0,0,0,0,0,0,0,0,0,0,0,0,0,0,0,0,0,0,0,0,0,0,0,0,0,0,0,0,0,0,0,0,0,0,0,0,0,0,0,0,0,0,0,0,0,0],"sum_hessian":[7.007E3,3.882E3,3.125E3,1.56E3,2.322E3,1.04E3,2.085E3,1.15E3,4.1E2,1.048E3,1.274E3,3.84E2,6.56E2,1.674E3,4.11E2,8.64E2,2.86E2,3.25E2,8.5E1,1.36E2,9.12E2,7E2,5.74E2,2.48E2,1.36E2,5.23E2,1.33E2,5.62E2,1.112E3,1.06E2,3.05E2,1.1E2,2.6E1,4.27E2,4.85E2,5.01E2,1.99E2,2.88E2,2.86E2,1.07E2,1.41E2,1.35E2,1E0,1.76E2,3.47E2,1.39E2,4.23E2,5.8E2,5.32E2,1.3E2,2.97E2,3.13E2,1.72E2,3.43E2,1.58E2,1.2E2,7.9E1,1.19E2,1.69E2,1.3E1,2.73E2,4E0,1.03E2,7.7E1,6.4E1,6E0,1.29E2,1.74E2,2E0],"tree_param":{"num_deleted":"0","num_feature":"5","num_nodes":"69","size_leaf_vector":"1"}},{"base_weights":[3.6251433E-2,-8.427548E1,1.04704666E2,-1.6913292E2,-2.7253588E1,4.6490307E1,1.3466367E2,-1.8806879E2,-1.24137535E2,-4.6710526E1,-1.2459824E1,2.2489405E1,6.2046726E1,1.2248884E2,1.6940508E2,-5.9884747E1,-5.4990654E1,-4.3125984E1,-3.5383583E1,-8.3814964E1,-4.069408E1,-2.2521072E1,-2.2051746E-1,1.6101385E1,3.15168E1,5.5144337E1,8.332957E1,1.0676998E2,1.2809962E2,4.5170574E1,5.350424E1,-2.7808226E1,-2.0699877E1,-4.736006E1,-3.6093716E1,-2.6371746E1,-1.881649E1,2.1926968E1,-1.0261962E0,1.3717526E1,1.9670923E1,7.962629E0,1.0653216E1,5.2015102E1,1.7895218E1,1.42369795E1,2.54844E1,2.8496655E1,3.343411E1,3.6349728E1,3.9759727E1,-1.6232843E1,-1.3537969E1,-1.1845727E1,-1.0096758E1,-8.323285E0,-7.4030757E0,-6.2163386E0,-4.475503E0,3.7065693E1,-5.62382E-1,-2.213911E0,3.9747757E-1,3.5433996E0,4.6701436E0,6.0397887E0,-3.6978884E0,2.0239747E0,1.5643574E1],"categories":[],"categories_nodes":[],"categories_segments":[],"categories_sizes":[],"default_left":[0,0,0,0,0,0,0,0,0,0,0,0,0,0,0,0,0,0,0,0,0,0,0,0,0,0,0,0,0,0,0,0,0,0,0,0,0,0,0,0,0,0,0,0,0,0,0,0,0,0,0,0,0,0,0,0,0,0,0,0,0,0,0,0,0,0,0,0,0],"id":2,"left_children":[1,3,5,7,9,11,13,15,17,19,21,23,25,27,29,-1,-1,-1,-1,31,33,35,37,39,41,43,45,47,49,-1,-1,-1,-1,51,53,55,57,59,61,63,65,-1,-1,67,-1,-1,-1,-1,-1,-1,-1,-1,-1,-1,-1,-1,-1,-1,-1,-1,-1,-1,-1,-1,-1,-1,-1,-1,-1],"loss_changes":[6.1852856E7,1.8779352E7,5.447364E6,1.305808E6,6.680735E5,3.95868E5,8.5226E5,2.3736E4,3.9527E4,2.2049575E5,1.6266653E5,2.371275E4,9.0157E4,1.21438E5,6.2926E4,0E0,0E0,0E0,0E0,1.18893125E4,2.4816625E4,9.846E3,1.0675225E4,1.8404688E3,2.4947344E3,3.807E3,5.02575E3,1.195E4,1.849E4,0E0,0E0,0E0,0E0,2.8344375E3,2.9380625E3,1.3651562E2,2.4602344E3,5.1027316E4,8.628926E3,3.5204492E2,1.6811641E3,0E0,0E0,1.397875E3,0E0,0E0,0E0,0E0,0E0,0E0,0E0,0E0,0E0,0E0,0E0,0E0,0E0,0E0,0E0,0E0,0E0,0E0,0E0,0E0,0E0,0E0,0E0,0E0,0E0],"parents":[2147483647,0,0,1,1,2,2,3,3,4,4,5,5,6,6,7,7,8,8,9,9,10,10,11,11,12,12,13,13,14,14,19,19,20,20,21,21,22,22,23,23,24,24,25,25,26,26,27,27,28,28,33,33,34,34,35,35,36,36,37,37,38,38,39,39,40,40,43,43],"right_children":[2,4,6,8,10,12,14,16,18,20,22,24,26,28,30,-1,-1,-1,-1,32,34,36,38,40,42,44,46,48,50,-1,-1,-1,-1,52,54,56,58,60,62,64,66,-1,-1,68,-1,-1,-1,-1,-1,-1,-1,-1,-1,-1,-1,-1,-1,-1,-1,-1,-1,-1,-1,-1,-1,-1,-1,-1,-1],"split_conditions":[2.404E3,2.182E3,2.574E3,2.038E3,2.326E3,2.49E3,2.678E3,2.001E3,2.122E3,2.266E3,2.372E3,2.436E3,2.52E3,2.626E3,2.734E3,-5.9884747E1,-5.4990654E1,-4.3125984E1,-3.5383583E1,2.222E3,2.305E3,2.344E3,-1.7006803E-1,2.429E3,2.449E3,2.503E3,2.525E3,2.605E3,2.654E3,4.5170574E1,5.350424E1,-2.7808226E1,-2.0699877E1,2.293E3,2.311E3,2.339E3,2.352E3,2.376E3,2.381E3,2.411E3,3.9609432E-1,7.962629E0,1.0653216E1,-4.8867586E-1,1.7895218E1,1.42369795E1,2.54844E1,2.8496655E1,3.343411E1,3.6349728E1,3.9759727E1,-1.6232843E1,-1.3537969E1,-1.1845727E1,-1.0096758E1,-8.323285E0,-7.4030757E0,-6.2163386E0,-4.475503E0,3.7065693E1,-5.62382E-1,-2.213911E0,3.9747757E-1,3.5433996E0,4.6701436E0,6.0397887E0,-3.6978884E0,2.0239747E0,1.5643574E1],"split_indices":[3,2,3,1,3,2,3,3,3,1,2,3,3,3,2,0,0,0,0,2,3,1,0,2,3,3,2,2,2,0,0,0,0,2,3,1,3,3,3,3,0,0,0,0,0,0,0,0,0,0,0,0,0,0,0,0,0,0,0,0,0,0,0,0,0,0,0,0,0],"split_type":[0,0,0,0,0,0,0,0,0,0,0,0,0,0,0,0,0,0,0,0,0,0,0,0,0,0,0,0,0,0,0,0,0,0,0,0,0,0,0,0,0,0,0,0,0,0,0,0,0,0,0,0,0,0,0,0,0,0,0,0,0,0,0,0,0,0,0,0,0],"sum_hessian":[7.007E3,3.881E3,3.126E3,1.559E3,2.322E3,1.063E3,2.063E3,1.095E3,4.64E2,1.002E3,1.32E3,4.19E2,6.44E2,1.531E3,5.32E2,3.08E2,7.87E2,1.06E2,3.58E2,1.38E2,8.64E2,7.24E2,5.96E2,2.47E2,1.72E2,4.89E2,1.55E2,4.08E2,1.123E3,1.77E2,3.55E2,8.3E1,5.5E1,3.49E2,5.15E2,3.52E2,3.72E2,2E1,5.76E2,1.51E2,9.6E1,8E1,9.2E1,2.96E2,1.93E2,8E0,1.47E2,1.22E2,2.86E2,4.49E2,6.74E2,8.1E1,2.68E2,2.09E2,3.06E2,1.86E2,1.66E2,2.47E2,1.25E2,3E0,1.7E1,1.55E2,4.21E2,7.8E1,7.3E1,9.5E1,1E0,1E0,2.95E2],"tree_param":{"num_deleted":"0","num_feature":"5","num_nodes":"69","size_leaf_vector":"1"}},{"base_weights":[3.335561E-2,-6.0213425E1,7.203513E1,-1.176225E2,-1.9242496E1,2.972811E1,9.370566E1,-1.3124745E2,-8.4606575E1,-3.2014454E1,-9.723423E0,1.372133E1,4.134752E1,8.456939E1,1.174497E2,-4.102662E1,-3.7307693E1,-2.7348984E1,-2.2666096E1,-5.3796654E1,-2.8344854E1,-1.5207608E1,1.6218577E-1,1.0348132E1,2.06941E1,3.7475777E1,5.395927E1,7.0236755E1,8.8174324E1,1.098118E2,3.934166E1,-1.8299303E1,-1.3265417E1,-3.1451542E1,-2.47153E1,-1.7742746E1,-1.1028286E1,-1.131861E0,1.929956E1,8.268466E0,1.34009495E1,1.7436495E1,6.6534667E0,3.0692007E1,3.8570328E1,1.3978711E1,1.7625574E1,1.95146E1,2.2224432E1,2.5193771E1,2.7611805E1,3.112806E1,3.4718117E1,-1.03791065E1,-8.845261E0,-7.609607E0,-6.3685293E0,-5.754835E0,-4.767584E0,-3.863469E0,-2.4428837E0,-4.9732938E-1,5.202994E-1,3.209619E1,1.5200545E0,2.6165872E0,6.5911315E-2,4.138846E0,-2.1412842E0,5.434707E0,2.7969728E0,9.489293E0,2.0465333E0,1.1068307E1,1.2249524E1],"categories":[],"categories_nodes":[],"categories_segments":[],"categories_sizes":[],"default_left":[0,0,0,0,0,0,0,0,0,0,0,0,0,0,0,0,0,0,0,0,0,0,0,0,0,0,0,0,0,0,0,0,0,0,0,0,0,0,0,0,0,0,0,0,0,0,0,0,0,0,0,0,0,0,0,0,0,0,0,0,0,0,0,0,0,0,0,0,0,0,0,0,0,0,0],"id":3,"left_children":[1,3,5,7,9,11,13,15,17,19,21,23,25,27,29,-1,-1,-1,-1,31,33,35,37,39,41,43,45,47,49,51,-1,-1,-1,53,55,57,59,61,63,65,67,69,-1,71,73,-1,-1,-1,-1,-1,-1,-1,-1,-1,-1,-1,-1,-1,-1,-1,-1,-1,-1,-1,-1,-1,-1,-1,-1,-1,-1,-1,-1,-1,-1],"loss_changes":[3.0404168E7,8.973362E6,2.924605E6,7.0369E5,2.705628E5,2.0085906E5,4.48012E5,2.5602E4,2.08325E4,7.4490375E4,6.928861E4,1.0534734E4,2.8593875E4,7.2756E4,4.66595E4,0E0,0E0,0E0,0E0,6.6835E3,8.4238125E3,8.513547E3,1.1339292E4,1.8573359E3,3.2882422E2,2.4025625E3,2.3795938E3,1.404375E3,1.2003E4,1.6305E3,0E0,0E0,0E0,1.678E3,3.2514062E2,1.0544062E3,1.5658398E3,6.4952435E2,3.565091E4,6.806426E2,1.1049648E3,1.12137695E2,0E0,1.3979922E3,5.5125E1,0E0,0E0,0E0,0E0,0E0,0E0,0E0,0E0,0E0,0E0,0E0,0E0,0E0,0E0,0E0,0E0,0E0,0E0,0E0,0E0,0E0,0E0,0E0,0E0,0E0,0E0,0E0,0E0,0E0,0E0],"parents":[2147483647,0,0,1,1,2,2,3,3,4,4,5,5,6,6,7,7,8,8,9,9,10,10,11,11,12,12,13,13,14,14,19,19,20,20,21,21,22,22,23,23,24,24,25,25,26,26,27,27,28,28,29,29,33,33,34,34,35,35,36,36,37,37,38,38,39,39,40,40,41,41,43,43,44,44],"right_children":[2,4,6,8,10,12,14,16,18,20,22,24,26,28,30,-1,-1,-1,-1,32,34,36,38,40,42,44,46,48,50,52,-1,-1,-1,54,56,58,60,62,64,66,68,70,-1,72,74,-1,-1,-1,-1,-1,-1,-1,-1,-1,-1,-1,-1,-1,-1,-1,-1,-1,-1,-1,-1,-1,-1,-1,-1,-1,-1,-1,-1,-1,-1],"split_conditions":[2.398E3,2.209E3,2.565E3,2.073E3,2.33E3,2.477E3,2.673E3,2.013E3,2.146E3,2.286E3,2.372E3,2.436E3,2.512E3,2.621E3,2.745E3,-4.102662E1,-3.7307693E1,-2.7348984E1,-2.2666096E1,2.23E3,2.308E3,2.35E3,1.785092E2,2.426E3,2.445E3,2.49E3,2.561E3,2.595E3,2.647E3,2.717E3,3.934166E1,-1.8299303E1,-1.3265417E1,2.295E3,2.321E3,2.337E3,2.366E3,2.393E3,-1.7006803E-1,1.625976E2,2.0194602E-1,2.45E3,6.6534667E0,2.516E3,2.51E3,1.3978711E1,1.7625574E1,1.95146E1,2.2224432E1,2.5193771E1,2.7611805E1,3.112806E1,3.4718117E1,-1.03791065E1,-8.845261E0,-7.609607E0,-6.3685293E0,-5.754835E0,-4.767584E0,-3.863469E0,-2.4428837E0,-4.9732938E-1,5.202994E-1,3.209619E1,1.5200545E0,2.6165872E0,6.5911315E-2,4.138846E0,-2.1412842E0,5.434707E0,2.7969728E0,9.489293E0,2.0465333E0,1.1068307E1,1.2249524E1],"split_indices":[3,2,3,1,1,2,3,2,3,2,3,3,3,3,3,0,0,0,0,3,3,1,4,2,3,3,2,2,3,3,0,0,0,3,3,3,2,3,0,4,0,1,0,2,2,0,0,0,0,0,0,0,0,0,0,0,0,0,0,0,0,0,0,0,0,0,0,0,0,0,0,0,0,0,0],"split_type":[0,0,0,0,0,0,0,0,0,0,0,0,0,0,0,0,0,0,0,0,0,0,0,0,0,0,0,0,0,0,0,0,0,0,0,0,0,0,0,0,0,0,0,0,0,0,0,0,0,0,0,0,0,0,0,0,0,0,0,0,0,0,0,0,0,0,0,0,0,0,0,0,0,0,0],"sum_hessian":[7.007E3,3.815E3,3.192E3,1.588E3,2.227E3,1.082E3,2.11E3,1.122E3,4.66E2,9.5E2,1.277E3,4.56E2,6.26E2,1.527E3,5.83E2,6.13E2,5.09E2,2.65E2,2.01E2,1.35E2,8.15E2,8.21E2,4.56E2,3.09E2,1.47E2,4.82E2,1.44E2,3.11E2,1.216E3,3.8E2,2.03E2,7.4E1,6.1E1,4.35E2,3.8E2,5.09E2,3.12E2,4.28E2,2.8E1,1.86E2,1.23E2,5E1,9.7E1,7.1E1,4.11E2,6.1E1,8.3E1,1.4E2,1.71E2,5.94E2,6.22E2,1.97E2,1.83E2,1.61E2,2.74E2,3.15E2,6.5E1,2.81E2,2.28E2,1.88E2,1.24E2,3.62E2,6.6E1,3E0,2.5E1,1.76E2,1E1,1.21E2,2E0,4.5E1,5E0,6.8E1,3E0,2.46E2,1.65E2],"tree_param":{"num_deleted":"0","num_feature":"5","num_nodes":"75","size_leaf_vector":"1"}},{"base_weights":[3.89444E-2,-4.1769672E1,5.1051537E1,-8.371926E1,-1.4032393E1,2.0879133E1,6.540153E1,-9.285167E1,-6.260954E1,-2.432341E1,-6.840248E0,1.0112595E1,2.8320219E1,5.8799232E1,8.200634E1,-3.177543E1,-2.7268744E1,-2.1094902E1,-1.7100338E1,-4.4203434E1,-2.0907175E1,-1.1525123E1,-4.2521188E-1,7.6320457E0,1.4586351E1,2.6266685E1,3.6608227E1,4.866264E1,6.1655823E1,7.7192924E1,2.8082277E1,-1.3769782E1,-1.0856468E1,-2.4949379E1,-1.864314E1,-1.32099495E1,-9.1732435E0,1.31241455E1,-8.095183E-1,4.6455355E0,8.477434E0,1.350406E1,1.757837E1,2.0294613E1,2.693547E1,9.294206E0,1.1803973E1,1.3126375E1,1.5222275E1,1.772228E1,1.9358053E1,2.1803825E1,2.4435709E1,-8.848555E0,-6.9413214E0,-5.9100113E0,-5.0273314E0,-4.307345E0,-3.6959329E0,-2.8217309E0,-4.5344904E-1,3.3207523E1,-2.6161902E0,-9.175745E-1,3.4330094E-1,3.8073123E0,1.1151419E0,2.5810795E0,-9.28711E-1,1.2725343E0,4.0898204E0,1.3550904E0,5.3467493E0,6.4168305E0,2.4460816E0,7.7915964E0,8.805856E0],"categories":[],"categories_nodes":[],"categories_segments":[],"categories_sizes":[],"default_left":[0,0,0,0,0,0,0,0,0,0,0,0,0,0,0,0,0,0,0,0,0,0,0,0,0,0,0,0,0,0,0,0,0,0,0,0,0,0,0,0,0,0,0,0,0,0,0,0,0,0,0,0,0,0,0,0,0,0,0,0,0,0,0,0,0,0,0,0,0,0,0,0,0,0,0,0,0],"id":4,"left_children":[1,3,5,7,9,11,13,15,17,19,21,23,25,27,29,-1,-1,-1,-1,31,33,35,37,39,41,43,45,47,49,51,-1,-1,-1,53,55,57,59,61,63,65,67,69,71,73,75,-1,-1,-1,-1,-1,-1,-1,-1,-1,-1,-1,-1,-1,-1,-1,-1,-1,-1,-1,-1,-1,-1,-1,-1,-1,-1,-1,-1,-1,-1,-1,-1],"loss_changes":[1.4948555E7,4.4808875E6,1.365532E6,2.89722E5,1.7154725E5,8.13505E4,2.29677E5,1.7667E4,1.613375E4,6.3866562E4,4.107842E4,4.527375E3,9.28425E3,4.14185E4,2.6614E4,0E0,0E0,0E0,0E0,2.2834375E2,7.002625E3,3.009211E3,3.0203308E3,6.448291E2,2.418789E2,1.3944688E3,5.840156E2,1.2683125E3,5.03E3,2.424E3,0E0,0E0,0E0,1.7057969E3,7.199844E2,2.9109375E2,5.79041E2,3.506678E4,2.4775151E3,4.159292E2,3.3325586E2,7.684766E1,3.428711E1,5.300879E2,2.485E2,0E0,0E0,0E0,0E0,0E0,0E0,0E0,0E0,0E0,0E0,0E0,0E0,0E0,0E0,0E0,0E0,0E0,0E0,0E0,0E0,0E0,0E0,0E0,0E0,0E0,0E0,0E0,0E0,0E0,0E0,0E0,0E0],"parents":[2147483647,0,0,1,1,2,2,3,3,4,4,5,5,6,6,7,7,8,8,9,9,10,10,11,11,12,12,13,13,14,14,19,19,20,20,21,21,22,22,23,23,24,24,25,25,26,26,27,27,28,28,29,29,33,33,34,34,35,35,36,36,37,37,38,38,39,39,40,40,41,41,42,42,43,43,44,44],"right_children":[2,4,6,8,10,12,14,16,18,20,22,24,26,28,30,-1,-1,-1,-1,32,34,36,38,40,42,44,46,48,50,52,-1,-1,-1,54,56,58,60,62,64,66,68,70,72,74,76,-1,-1,-1,-1,-1,-1,-1,-1,-1,-1,-1,-1,-1,-1,-1,-1,-1,-1,-1,-1,-1,-1,-1,-1,-1,-1,-1,-1,-1,-1,-1,-1],"split_conditions":[2.412E3,2.165E3,2.561E3,2.03E3,2.326E3,2.477E3,2.67E3,1.999E3,2.138E3,2.239E3,2.361E3,2.436E3,2.512E3,2.628E3,2.755E3,-3.177543E1,-2.7268744E1,-2.1094902E1,-1.7100338E1,2.214E3,2.3E3,2.349E3,-1.7006803E-1,2.407E3,2.458E3,2.486E3,2.525E3,2.584E3,2.656E3,2.717E3,2.8082277E1,-1.3769782E1,-1.0856468E1,2.282E3,2.316E3,2.34E3,2.376E3,2.376E3,2.385E3,2.396E3,3.9609432E-1,-3.181643E-1,9.2144E0,2.516E3,2.509E3,9.294206E0,1.1803973E1,1.3126375E1,1.5222275E1,1.772228E1,1.9358053E1,2.1803825E1,2.4435709E1,-8.848555E0,-6.9413214E0,-5.9100113E0,-5.0273314E0,-4.307345E0,-3.6959329E0,-2.8217309E0,-4.5344904E-1,3.3207523E1,-2.6161902E0,-9.175745E-1,3.4330094E-1,3.8073123E0,1.1151419E0,2.5810795E0,-9.28711E-1,1.2725343E0,4.0898204E0,1.3550904E0,5.3467493E0,6.4168305E0,2.4460816E0,7.7915964E0,8.805856E0],"split_indices":[2,3,3,3,1,2,3,2,2,2,3,3,3,2,2,0,0,0,0,3,3,2,0,3,1,3,2,2,2,3,0,0,0,3,1,2,2,3,3,1,0,0,4,2,1,0,0,0,0,0,0,0,0,0,0,0,0,0,0,0,0,0,0,0,0,0,0,0,0,0,0,0,0,0,0,0,0],"split_type":[0,0,0,0,0,0,0,0,0,0,0,0,0,0,0,0,0,0,0,0,0,0,0,0,0,0,0,0,0,0,0,0,0,0,0,0,0,0,0,0,0,0,0,0,0,0,0,0,0,0,0,0,0,0,0,0,0,0,0,0,0,0,0,0,0,0,0,0,0,0,0,0,0,0,0,0,0],"sum_hessian":[7.007E3,3.851E3,3.156E3,1.532E3,2.319E3,1.018E3,2.138E3,1.067E3,4.65E2,9.53E2,1.366E3,4.17E2,6.01E2,1.533E3,6.05E2,1.32E2,9.35E2,1.91E2,2.74E2,1.38E2,8.15E2,7.89E2,5.77E2,2.7E2,1.47E2,4.85E2,1.16E2,3.41E2,1.192E3,4.33E2,1.72E2,1.1E2,2.8E1,2.89E2,5.26E2,4.57E2,3.32E2,1.5E1,5.62E2,6.1E1,2.09E2,1.12E2,3.5E1,5.2E1,4.33E2,4.2E1,7.4E1,1.08E2,2.33E2,6.39E2,5.53E2,2.19E2,2.14E2,7.8E1,2.11E2,3.31E2,1.95E2,1.93E2,2.64E2,3.22E2,1E1,2E0,1.3E1,2.61E2,3.01E2,5E0,5.6E1,2.07E2,2E0,2E0,1.1E2,1E0,3.4E1,4.7E1,5E0,3.18E2,1.15E2],"tree_param":{"num_deleted":"0","num_feature":"5","num_nodes":"77","size_leaf_vector":"1"}},{"base_weights":[3.7999157E-2,-2.9691391E1,3.5323666E1,-5.874606E1,-1.0159634E1,1.37914715E1,4.5675434E1,-6.485139E1,-4.3341324E1,-1.7029402E1,-5.007419E0,6.8092837E0,1.9428434E1,4.1028946E1,5.7580956E1,-2.2404287E1,-6.343522E1,-1.5131856E1,-1.2266083E1,-3.1043436E1,-1.46031885E1,-7.702027E0,1.9927855E-1,4.4941216E0,9.596902E0,1.7763931E1,2.285036E1,9.77566E0,4.29969E1,5.4777153E1,2.0642183E1,-1.924965E1,-1.6511473E1,-9.648474E0,-7.661689E0,-1.87088E1,-1.3393989E1,-8.927778E0,-5.6743345E0,-6.300751E-1,1.3062238E1,1.8892802E0,5.277884E0,7.9532447E0,1.1090822E1,1.7869862E1,9.0637213E-1,2.1358044E1,7.7967978E0,1.1900448E1,4.443471E1,5.1371128E1,1.7371874E1,-6.227567E0,-5.115466E0,-4.364762E0,-3.5872366E0,-2.881098E0,-2.3121004E0,-1.7630068E0,9.3115544E-1,-1.6598958E-1,-4.9083986E0,2.4866602E1,2.6407167E-1,7.3245144E-1,-1.4351807E0,1.7000065E0,1.0830487E0,2.5575335E0,-3.5672086E-1,1.3935547E-1,3.3860812E0,4.402355E0,5.4861627E0,6.514328E0,4.23431E0,1.3082343E1,1.4286388E1,1.5464426E1,6.0096197E0],"categories":[],"categories_nodes":[],"categories_segments":[],"categories_sizes":[],"default_left":[0,0,0,0,0,0,0,0,0,0,0,0,0,0,0,0,0,0,0,0,0,0,0,0,0,0,0,0,0,0,0,0,0,0,0,0,0,0,0,0,0,0,0,0,0,0,0,0,0,0,0,0,0,0,0,0,0,0,0,0,0,0,0,0,0,0,0,0,0,0,0,0,0,0,0,0,0,0,0,0,0],"id":5,"left_children":[1,3,5,7,9,11,13,15,17,19,21,23,25,27,29,-1,31,-1,-1,33,35,37,39,41,43,45,47,-1,49,51,-1,-1,-1,-1,-1,53,55,57,59,61,63,65,67,69,71,73,-1,75,-1,-1,77,79,-1,-1,-1,-1,-1,-1,-1,-1,-1,-1,-1,-1,-1,-1,-1,-1,-1,-1,-1,-1,-1,-1,-1,-1,-1,-1,-1,-1,-1],"loss_changes":[7.352591E6,2.15813E6,7.1375275E5,1.409935E5,8.047264E4,4.087908E4,1.173475E5,1.0477E4,5.5509375E3,3.2697688E4,1.8268607E4,2.970789E3,2.874875E3,2.452025E4,1.5274E4,0E0,2.3675E3,0E0,0E0,5.8765625E1,3.8848281E3,2.0818516E3,4.7554644E3,5.1471387E2,4.2990234E2,5.581875E2,3.1151562E2,0E0,4.2775E3,2.237E3,0E0,0E0,0E0,0E0,0E0,2.8126172E2,8.997344E2,3.6576172E2,5.973164E2,4.970116E2,2.2893928E4,2.3647194E2,1.0728027E2,5.5386816E2,2.198252E2,2.5039844E2,0E0,3.1695312E1,0E0,0E0,2.23625E2,3.149375E2,0E0,0E0,0E0,0E0,0E0,0E0,0E0,0E0,0E0,0E0,0E0,0E0,0E0,0E0,0E0,0E0,0E0,0E0,0E0,0E0,0E0,0E0,0E0,0E0,0E0,0E0,0E0,0E0,0E0],"parents":[2147483647,0,0,1,1,2,2,3,3,4,4,5,5,6,6,7,7,8,8,9,9,10,10,11,11,12,12,13,13,14,14,16,16,19,19,20,20,21,21,22,22,23,23,24,24,25,25,26,26,28,28,29,29,35,35,36,36,37,37,38,38,39,39,40,40,41,41,42,42,43,43,44,44,45,45,47,47,50,50,51,51],"right_children":[2,4,6,8,10,12,14,16,18,20,22,24,26,28,30,-1,32,-1,-1,34,36,38,40,42,44,46,48,-1,50,52,-1,-1,-1,-1,-1,54,56,58,60,62,64,66,68,70,72,74,-1,76,-1,-1,78,80,-1,-1,-1,-1,-1,-1,-1,-1,-1,-1,-1,-1,-1,-1,-1,-1,-1,-1,-1,-1,-1,-1,-1,-1,-1,-1,-1,-1,-1],"split_conditions":[2.397E3,2.174E3,2.557E3,2.042E3,2.332E3,2.467E3,2.68E3,1.993E3,2.126E3,2.239E3,2.372E3,2.434E3,2.507E3,2.616E3,2.754E3,-2.2404287E1,2.022E3,-1.5131856E1,-1.2266083E1,2.217E3,2.292E3,2.345E3,1.785092E2,-2.7614139E-2,2.453E3,2.711043E2,2.525E3,9.77566E0,2.642E3,2.725E3,2.0642183E1,-1.924965E1,-1.6511473E1,-9.648474E0,-7.661689E0,2.282E3,2.317E3,2.345E3,1.2974977E-1,2.41E3,2.376E3,1.625976E2,5.77899E1,2.132766E2,2.41E3,2.491E3,9.0637213E-1,2.52E3,7.7967978E0,1.1900448E1,2.668E3,2.9097053E-1,1.7371874E1,-6.227567E0,-5.115466E0,-4.364762E0,-3.5872366E0,-2.881098E0,-2.3121004E0,-1.7630068E0,9.3115544E-1,-1.6598958E-1,-4.9083986E0,2.4866602E1,2.6407167E-1,7.3245144E-1,-1.4351807E0,1.7000065E0,1.0830487E0,2.5575335E0,-3.5672086E-1,1.3935547E-1,3.3860812E0,4.402355E0,5.4861627E0,6.514328E0,4.23431E0,1.3082343E1,1.4286388E1,1.5464426E1,6.0096197E0],"split_indices":[3,2,3,2,2,1,2,3,1,2,3,2,3,3,3,0,3,0,0,1,3,3,4,0,2,4,2,0,2,3,0,0,0,0,0,3,2,2,0,1,3,4,4,4,3,1,0,3,0,0,2,0,0,0,0,0,0,0,0,0,0,0,0,0,0,0,0,0,0,0,0,0,0,0,0,0,0,0,0,0,0],"split_type":[0,0,0,0,0,0,0,0,0,0,0,0,0,0,0,0,0,0,0,0,0,0,0,0,0,0,0,0,0,0,0,0,0,0,0,0,0,0,0,0,0,0,0,0,0,0,0,0,0,0,0,0,0,0,0,0,0,0,0,0,0,0,0,0,0,0,0,0,0,0,0,0,0,0,0,0,0,0,0,0,0],"sum_hessian":[7.007E3,3.803E3,3.204E3,1.528E3,2.275E3,1.041E3,2.163E3,1.092E3,4.36E2,9.74E2,1.301E3,4.66E2,5.75E2,1.559E3,6.04E2,1.31E2,9.61E2,1.07E2,3.29E2,1.42E2,8.32E2,8.57E2,4.44E2,2.56E2,2.1E2,3.91E2,1.84E2,2.98E2,1.261E3,4.88E2,1.16E2,8.78E2,8.3E1,1.14E2,2.8E1,1.86E2,6.46E2,5.32E2,3.25E2,4.18E2,2.6E1,6E1,1.96E2,1.03E2,1.07E2,3.88E2,3E0,1.3E2,5.4E1,3.89E2,8.72E2,2.42E2,2.46E2,7.8E1,1.08E2,3.53E2,2.93E2,3.38E2,1.94E2,3.18E2,7E0,4.17E2,1E0,3E0,2.3E1,5.6E1,4E0,1.57E2,3.9E1,9.7E1,6E0,2E0,1.05E2,4.9E1,3.39E2,1.22E2,8E0,7.04E2,1.68E2,2.4E2,2E0],"tree_param":{"num_deleted":"0","num_feature":"5","num_nodes":"81","size_leaf_vector":"1"}},{"base_weights":[3.1979863E-2,-2.082993E1,2.4764423E1,-4.147317E1,-7.3012466E0,9.93127E0,3.2176353E1,-4.58245E1,-3.1673056E1,-1.32374935E1,-4.091658E0,5.0167446E0,1.4169228E1,2.928691E1,4.1682774E1,-4.867165E1,-1.3006246E1,-1.1205955E1,-2.9292246E1,-6.5967197E0,-1.0933197E1,-6.277734E0,-5.7077265E-1,-5.984967E0,5.2087483E0,1.288731E1,1.7018358E1,2.4940172E1,3.1101858E1,4.046583E1,1.7589466E1,-1.6046427E1,-1.413256E1,-9.373985E0,-8.345766E0,-1.354942E1,-1.0090542E1,-7.1826487E0,-5.021699E0,-4.5198753E-1,-1.0277381E1,3.2878575E0,7.10089E0,1.2729999E1,7.5836062E0,2.0657043E0,1.7155058E1,6.69548E0,7.972298E0,2.9783024E1,3.3008667E1,1.1212E1,1.2588207E1,-4.5825534E0,-3.744605E0,4.0682375E-1,-3.0350494E0,-2.34791E0,-1.9382664E0,-1.5836687E0,-4.9406657E-1,4.80249E0,-2.590267E-1,3.9455569E0,9.582892E-1,2.276756E0,6.6817325E-1,3.8449185E0,3.1122437E-1,4.807253E0,5.714816E0,3.0571048E0,8.947495E0,9.923052E0,2.2675782E-1],"categories":[],"categories_nodes":[],"categories_segments":[],"categories_sizes":[],"default_left":[0,0,0,0,0,0,0,0,0,0,0,0,0,0,0,0,0,0,0,0,0,0,0,0,0,0,0,0,0,0,0,0,0,0,0,0,0,0,0,0,0,0,0,0,0,0,0,0,0,0,0,0,0,0,0,0,0,0,0,0,0,0,0,0,0,0,0,0,0,0,0,0,0,0,0],"id":6,"left_children":[1,3,5,7,9,11,13,15,17,19,21,23,25,27,29,31,-1,-1,33,-1,35,37,39,-1,41,43,45,47,49,51,-1,-1,-1,-1,-1,53,55,57,59,61,-1,63,65,67,-1,-1,69,-1,-1,71,73,-1,-1,-1,-1,-1,-1,-1,-1,-1,-1,-1,-1,-1,-1,-1,-1,-1,-1,-1,-1,-1,-1,-1,-1],"loss_changes":[3.6164052E6,1.0615041E6,3.522655E5,6.2727E4,4.3729438E4,2.2214398E4,5.750625E4,5.20475E3,5.2076562E3,1.60135625E4,1.148792E4,2.486375E3,1.877125E3,1.218625E4,7.8578125E3,1.056375E3,0E0,0E0,8.940625E1,0E0,1.2742031E3,1.0107461E3,2.2773948E3,0E0,1.7721445E3,4.579297E2,1.2427344E2,1.5020625E3,1.921375E3,5.86E2,0E0,0E0,0E0,0E0,0E0,9.117383E1,1.6057031E2,1.9707031E2,3.289541E2,3.8875974E3,0E0,1.8594043E2,5.732832E2,3.877539E2,0E0,0E0,6.321875E1,0E0,0E0,2.658125E2,9.9309375E2,0E0,0E0,0E0,0E0,0E0,0E0,0E0,0E0,0E0,0E0,0E0,0E0,0E0,0E0,0E0,0E0,0E0,0E0,0E0,0E0,0E0,0E0,0E0,0E0],"parents":[2147483647,0,0,1,1,2,2,3,3,4,4,5,5,6,6,7,7,8,8,9,9,10,10,11,11,12,12,13,13,14,14,15,15,18,18,20,20,21,21,22,22,24,24,25,25,26,26,27,27,28,28,29,29,35,35,36,36,37,37,38,38,39,39,41,41,42,42,43,43,46,46,49,49,50,50],"right_children":[2,4,6,8,10,12,14,16,18,20,22,24,26,28,30,32,-1,-1,34,-1,36,38,40,-1,42,44,46,48,50,52,-1,-1,-1,-1,-1,54,56,58,60,62,-1,64,66,68,-1,-1,70,-1,-1,72,74,-1,-1,-1,-1,-1,-1,-1,-1,-1,-1,-1,-1,-1,-1,-1,-1,-1,-1,-1,-1,-1,-1,-1,-1],"split_conditions":[2.408E3,2.169E3,2.571E3,2.025E3,2.313E3,2.49E3,2.682E3,2.01E3,2.124E3,2.236E3,2.356E3,2.382E3,2.512E3,2.634E3,2.765E3,1.99E3,-1.3006246E1,-1.1205955E1,2.139E3,-6.5967197E0,2.29E3,2.345E3,3.041683E2,-5.984967E0,2.434E3,3.9609432E-1,2.497E3,2.605E3,2.662E3,2.732E3,1.7589466E1,-1.6046427E1,-1.413256E1,-9.373985E0,-8.345766E0,2.286E3,-4.8867586E-1,2.328E3,7.432872E-2,-1.7006803E-1,-1.0277381E1,2.388E3,1.229547E-1,1.625976E2,7.5836062E0,2.0657043E0,2.551E3,6.69548E0,7.972298E0,-4.8867586E-1,2.708E3,1.1212E1,1.2588207E1,-4.5825534E0,-3.744605E0,4.0682375E-1,-3.0350494E0,-2.34791E0,-1.9382664E0,-1.5836687E0,-4.9406657E-1,4.80249E0,-2.590267E-1,3.9455569E0,9.582892E-1,2.276756E0,6.6817325E-1,3.8449185E0,3.1122437E-1,4.807253E0,5.714816E0,3.0571048E0,8.947495E0,9.923052E0,2.2675782E-1],"split_indices":[2,2,2,3,3,2,3,2,2,1,3,1,1,2,3,3,0,0,1,0,3,2,4,0,2,0,3,2,2,3,0,0,0,0,0,2,0,3,0,0,0,1,0,4,0,0,3,0,0,0,1,0,0,0,0,0,0,0,0,0,0,0,0,0,0,0,0,0,0,0,0,0,0,0,0],"split_type":[0,0,0,0,0,0,0,0,0,0,0,0,0,0,0,0,0,0,0,0,0,0,0,0,0,0,0,0,0,0,0,0,0,0,0,0,0,0,0,0,0,0,0,0,0,0,0,0,0,0,0,0,0,0,0,0,0,0,0,0,0,0,0,0,0,0,0,0,0,0,0,0,0,0,0],"sum_hessian":[7.007E3,3.801E3,3.206E3,1.504E3,2.297E3,1.069E3,2.137E3,1.039E3,4.65E2,8.05E2,1.492E3,4.96E2,5.73E2,1.642E3,4.95E2,4.74E2,5.65E2,1.33E2,3.32E2,1.66E2,6.39E2,9.2E2,5.72E2,3E0,4.93E2,3.99E2,1.74E2,4.88E2,1.154E3,4.65E2,3E1,1.08E2,3.66E2,1.34E2,1.98E2,1.52E2,4.87E2,5.32E2,3.88E2,5.71E2,1E0,2.46E2,2.47E2,3.96E2,3E0,3E0,1.71E2,1.93E2,2.95E2,6.92E2,4.62E2,1.6E2,3.05E2,5.3E1,9.9E1,1E0,4.86E2,2.76E2,2.56E2,3.6E2,2.8E1,1.3E1,5.58E2,1E0,2.45E2,2.24E2,2.3E1,3.93E2,3E0,1.13E2,5.8E1,2E0,6.9E2,4.61E2,1E0],"tree_param":{"num_deleted":"0","num_feature":"5","num_nodes":"75","size_leaf_vector":"1"}},{"base_weights":[2.276181E-2,-1.6216106E1,1.5674676E1,-2.9079124E1,-6.208327E0,5.1871495E0,2.244155E1,-3.216255E1,-2.2262722E1,-1.3863878E1,-5.085765E0,1.8315276E0,9.326575E0,2.0111792E1,2.8417292E1,-3.438841E1,-9.142691E0,-2.6072847E1,-2.0510494E1,-1.6069729E1,-1.092372E1,-6.668072E0,-3.5105133E0,1.1290728E1,1.4749912E0,8.356693E0,1.1120562E1,1.5945505E1,2.1100246E1,2.6999014E1,3.6147114E1,-1.2038274E1,-1.0068698E1,-8.148567E0,-2.2020983E1,-6.320136E0,-1.755608E1,-9.762102E0,-4.8842654E0,-1.1212065E1,-2.6837401E0,-7.9260116E0,-5.8934193E0,-3.3446662E0,-1.0579371E1,4.5940468E1,3.6557797E-1,-6.184018E-1,2.9096982E0,8.641801E0,5.04691E0,1.0725088E1,5.2655077E0,1.599389E1,1.9273682E-1,1.9338455E1,2.1793615E1,2.5228798E1,8.474969E0,9.826092E0,1.26818075E1,-4.078983E0,-8.424196E0,-5.39576E0,-2.1772523E0,-6.070679E-1,-3.21438E0,-4.1113954E0,-3.1037388E0,6.6774905E-1,-1.3402772E0,-2.2546656E0,-3.0747364E0,-1.9270192E0,-1.6345586E0,-1.2548131E0,-5.81162E-1,-1.0222266E1,-1.7432718E0,2.3029053E0,-4.9346593E-1,-2.601962E0,-9.478706E-2,8.5357115E-2,1.0077527E0,8.770142E-1,2.613241E0,-9.2002654E-1,2.0494049E0,4.2506626E-1,3.2987688E0,4.4123416E0,5.0819416E0,5.8108616E0,1.2036988E0,6.3867035E0,7.011837E0,7.6023107E0,2.565332E0],"categories":[],"categories_nodes":[],"categories_segments":[],"categories_sizes":[],"default_left":[0,0,0,0,0,0,0,0,0,0,0,0,0,0,0,0,0,0,0,0,0,0,0,0,0,0,0,0,0,0,0,0,0,0,0,0,0,0,0,0,0,0,0,0,0,0,0,0,0,0,0,0,0,0,0,0,0,0,0,0,0,0,0,0,0,0,0,0,0,0,0,0,0,0,0,0,0,0,0,0,0,0,0,0,0,0,0,0,0,0,0,0,0,0,0,0,0,0,0],"id":7,"left_children":[1,3,5,7,9,11,13,15,17,19,21,23,25,27,29,31,-1,33,35,37,39,41,43,45,47,49,51,53,55,57,59,-1,-1,-1,61,-1,63,65,-1,67,69,71,73,75,77,-1,79,81,83,85,87,89,-1,91,-1,93,95,97,-1,-1,-1,-1,-1,-1,-1,-1,-1,-1,-1,-1,-1,-1,-1,-1,-1,-1,-1,-1,-1,-1,-1,-1,-1,-1,-1,-1,-1,-1,-1,-1,-1,-1,-1,-1,-1,-1,-1,-1,-1],"loss_changes":[1.781473E6,4.4265156E5,2.5316756E5,3.091575E4,1.6567148E4,1.9443293E4,2.9625375E4,2.8345E3,2.6164062E3,1.4263906E3,4.1889688E3,2.597071E3,9.9801953E2,6.104375E3,5.6676562E3,7.2984375E2,0E0,4.1695312E1,1.6954688E2,2.6199219E1,2.2888867E2,7.7378516E2,9.5993945E2,4.3334742E4,2.2483467E3,3.4422656E2,3.6366016E2,2.1482812E2,1.119E3,4.2984375E2,5.0703125E2,0E0,0E0,0E0,1.4559609E3,0E0,1.2618359E2,2.9914978E1,0E0,8.493457E1,5.3733788E1,2.2620117E2,8.878906E1,9.7207324E2,1.9306511E3,0E0,4.0947403E2,7.4028076E2,5.2294434E2,1.23291016E2,5.2769214E2,5.0621094E2,0E0,1.19453125E2,0E0,9.615625E1,2.171875E2,2.0071875E2,0E0,0E0,0E0,0E0,0E0,0E0,0E0,0E0,0E0,0E0,0E0,0E0,0E0,0E0,0E0,0E0,0E0,0E0,0E0,0E0,0E0,0E0,0E0,0E0,0E0,0E0,0E0,0E0,0E0,0E0,0E0,0E0,0E0,0E0,0E0,0E0,0E0,0E0,0E0,0E0,0E0],"parents":[2147483647,0,0,1,1,2,2,3,3,4,4,5,5,6,6,7,7,8,8,9,9,10,10,11,11,12,12,13,13,14,14,15,15,17,17,18,18,19,19,20,20,21,21,22,22,23,23,24,24,25,25,26,26,27,27,28,28,29,29,30,30,34,34,36,36,37,37,39,39,40,40,41,41,42,42,43,43,44,44,46,46,47,47,48,48,49,49,50,50,51,51,53,53,55,55,56,56,57,57],"right_children":[2,4,6,8,10,12,14,16,18,20,22,24,26,28,30,32,-1,34,36,38,40,42,44,46,48,50,52,54,56,58,60,-1,-1,-1,62,-1,64,66,-1,68,70,72,74,76,78,-1,80,82,84,86,88,90,-1,92,-1,94,96,98,-1,-1,-1,-1,-1,-1,-1,-1,-1,-1,-1,-1,-1,-1,-1,-1,-1,-1,-1,-1,-1,-1,-1,-1,-1,-1,-1,-1,-1,-1,-1,-1,-1,-1,-1,-1,-1,-1,-1,-1,-1],"split_conditions":[2.385E3,2.169E3,2.567E3,2.032E3,2.29E3,2.461E3,2.67E3,2.004E3,2.117E3,2.214E3,2.328E3,2.386E3,2.512E3,2.616E3,2.763E3,1.99E3,-9.142691E0,9.85326E1,2.161E3,2.164E3,1.04851775E-1,2.312E3,1.785092E2,-1.7006803E-1,2.405E3,7.333394E-2,1.2974977E-1,2.649E3,2.641E3,2.728E3,2.775E3,-1.2038274E1,-1.0068698E1,-8.148567E0,2.062E3,-6.320136E0,1.3702384E-1,-5.4244645E-2,-4.8842654E0,-2.7813833E-2,1.4519408E-1,5.91229E1,2.32E3,2.357E3,-1.8527097E-1,4.5940468E1,-1.8691588E-2,-1.7006803E-1,-5.5263884E-2,-2.6914153E-1,2.445E3,2.495E3,5.2655077E0,2.584E3,1.9273682E-1,2.711043E2,2.666E3,2.9097053E-1,8.474969E0,9.826092E0,1.26818075E1,-4.078983E0,-8.424196E0,-5.39576E0,-2.1772523E0,-6.070679E-1,-3.21438E0,-4.1113954E0,-3.1037388E0,6.6774905E-1,-1.3402772E0,-2.2546656E0,-3.0747364E0,-1.9270192E0,-1.6345586E0,-1.2548131E0,-5.81162E-1,-1.0222266E1,-1.7432718E0,2.3029053E0,-4.9346593E-1,-2.601962E0,-9.478706E-2,8.5357115E-2,1.0077527E0,8.770142E-1,2.613241E0,-9.2002654E-1,2.0494049E0,4.2506626E-1,3.2987688E0,4.4123416E0,5.0819416E0,5.8108616E0,1.2036988E0,6.3867035E0,7.011837E0,7.6023107E0,2.565332E0],"split_indices":[1,2,2,2,2,2,3,3,3,3,3,1,2,3,2,2,0,4,2,1,0,2,4,0,2,0,0,1,2,2,2,0,0,0,3,0,0,0,0,0,0,4,2,2,0,0,0,0,0,0,3,3,0,2,0,4,2,0,0,0,0,0,0,0,0,0,0,0,0,0,0,0,0,0,0,0,0,0,0,0,0,0,0,0,0,0,0,0,0,0,0,0,0,0,0,0,0,0,0],"split_type":[0,0,0,0,0,0,0,0,0,0,0,0,0,0,0,0,0,0,0,0,0,0,0,0,0,0,0,0,0,0,0,0,0,0,0,0,0,0,0,0,0,0,0,0,0,0,0,0,0,0,0,0,0,0,0,0,0,0,0,0,0,0,0,0,0,0,0,0,0,0,0,0,0,0,0,0,0,0,0,0,0,0,0,0,0,0,0,0,0,0,0,0,0,0,0,0,0,0,0],"sum_hessian":[7.007E3,3.439E3,3.568E3,1.504E3,1.935E3,1.4E3,2.168E3,1.033E3,4.71E2,2.46E2,1.689E3,7.74E2,6.26E2,1.563E3,6.05E2,4.37E2,5.96E2,1.44E2,3.27E2,1.38E2,1.08E2,8.41E2,8.48E2,2.7E1,7.47E2,4.1E2,2.16E2,3.03E2,1.26E3,5.15E2,9E1,4.9E1,3.88E2,1.09E2,3.5E1,2.7E2,5.7E1,6E0,1.32E2,1.04E2,4E0,3.17E2,5.24E2,8.3E2,1.8E1,1E0,2.6E1,3.04E2,4.43E2,3.76E2,3.4E1,2.06E2,1E1,3.02E2,1E0,3.64E2,8.96E2,2.22E2,2.93E2,6.2E1,2.8E1,1.6E1,1.9E1,5.4E1,3E0,1E0,5E0,2.3E1,8.1E1,1E0,3E0,2.73E2,4.4E1,2.33E2,2.91E2,5.19E2,3.11E2,2E0,1.6E1,5E0,2.1E1,1E1,2.94E2,6.5E1,3.78E2,5E0,3.71E2,6E0,2.8E1,6E0,2E2,1.35E2,1.67E2,3.63E2,1E0,6.9E2,2.06E2,2.2E2,2E0],"tree_param":{"num_deleted":"0","num_feature":"5","num_nodes":"99","size_leaf_vector":"1"}},{"base_weights":[1.962876E-2,-1.1381823E1,1.1008974E1,-2.0399096E1,-4.366132E0,3.5614648E0,1.5685825E1,-2.2184816E1,-1.4551875E1,-1.0173353E1,-3.6195068E0,1.1374903E0,6.196732E0,1.4218554E1,2.0700418E1,-2.3509869E1,-1.994156E1,-4.8062506E0,-1.363194E1,-1.1334608E1,-8.080819E0,-4.891953E0,-2.599092E0,9.6088085E0,7.9307634E-1,4.717096E0,6.9984164E0,1.2021347E1,1.5291148E1,1.9731026E1,2.7019093E1,-8.269927E0,-6.900282E0,-6.1158004E0,-1.72951E1,-4.1312294E0,-8.144989E0,-1.2077229E1,-9.514974E0,-4.292813E0,-7.577953E0,-5.9308586E0,-4.3431535E0,-2.521443E0,-4.3380985E0,3.9049404E1,3.2286242E-1,-5.860631E-1,1.7261659E0,4.9006815E0,-1.9626465E0,6.8098707E0,1.2060634E1,1.0720408E1,1.3022029E1,1.4831303E1,1.6647278E1,1.888076E1,2.0871813E1,3.874347E0,2.7509083E1,-4.7179136E0,-6.3505373E0,-2.937671E0,5.078614E-1,-1.2365845E0,-3.6875508E0,-1.333144E0,-3.0543628E0,-2.5193017E0,-9.692505E-1,-1.8633612E0,-1.4381038E0,-7.9589844E-2,-1.315069E0,-2.3914692E0,-7.22289E-1,-4.274048E0,4.29357E-1,-2.3570619E0,-1.1125569E-1,2.645741E0,4.5848337E-1,4.366699E0,1.4254482E0,-3.0594485E0,1.0113575E0,2.4877931E-1,2.064339E0,6.285132E0,2.649939E0,1.7615541E0,3.2756987E0,3.8636596E0,7.056787E0,2.1589456E0,4.457581E0,2.8440256E0,5.0308876E0,6.6316648E0,5.3938375E0,6.2765446E0,1.8257447E0,7.141415E0,9.346496E0],"categories":[],"categories_nodes":[],"categories_segments":[],"categories_sizes":[],"default_left":[0,0,0,0,0,0,0,0,0,0,0,0,0,0,0,0,0,0,0,0,0,0,0,0,0,0,0,0,0,0,0,0,0,0,0,0,0,0,0,0,0,0,0,0,0,0,0,0,0,0,0,0,0,0,0,0,0,0,0,0,0,0,0,0,0,0,0,0,0,0,0,0,0,0,0,0,0,0,0,0,0,0,0,0,0,0,0,0,0,0,0,0,0,0,0,0,0,0,0,0,0,0,0,0,0],"id":8,"left_children":[1,3,5,7,9,11,13,15,17,19,21,23,25,27,29,31,33,-1,35,37,39,41,43,45,47,49,51,53,55,57,59,-1,-1,-1,61,-1,63,65,67,-1,69,71,73,75,-1,-1,77,79,81,83,85,87,89,91,93,95,97,99,101,-1,103,-1,-1,-1,-1,-1,-1,-1,-1,-1,-1,-1,-1,-1,-1,-1,-1,-1,-1,-1,-1,-1,-1,-1,-1,-1,-1,-1,-1,-1,-1,-1,-1,-1,-1,-1,-1,-1,-1,-1,-1,-1,-1,-1,-1],"loss_changes":[8.7818906E5,2.175336E5,1.2425569E5,1.5391625E4,8.35732E3,8.795367E3,1.5833875E4,2.9524375E3,2.6132812E2,4.4299805E2,2.2166758E3,2.090162E3,7.4988086E2,3.82025E3,2.4927656E3,8.4828125E2,1.5789062E2,0E0,5.9226562E1,7.2916016E1,1.4839893E2,4.0926758E2,8.4310596E2,3.1303283E4,8.9151917E2,2.977998E2,3.2446875E2,5.9202344E2,4.6278125E2,2.4953125E1,8.013281E1,0E0,0E0,0E0,8.635547E1,0E0,1.4622015E2,1.1152344E2,1.06792725E2,0E0,2.5081494E2,5.3432617E1,8.172363E1,5.700869E2,0E0,0E0,4.5638556E2,4.3521808E2,5.6621423E2,2.606919E2,3.4186823E2,1.7030273E2,2.1662842E2,1.7660156E2,1.6758984E2,7.2125E1,8.6546875E1,3.524297E2,2.0546875E0,0E0,6.871094E1,0E0,0E0,0E0,0E0,0E0,0E0,0E0,0E0,0E0,0E0,0E0,0E0,0E0,0E0,0E0,0E0,0E0,0E0,0E0,0E0,0E0,0E0,0E0,0E0,0E0,0E0,0E0,0E0,0E0,0E0,0E0,0E0,0E0,0E0,0E0,0E0,0E0,0E0,0E0,0E0,0E0,0E0,0E0,0E0],"parents":[2147483647,0,0,1,1,2,2,3,3,4,4,5,5,6,6,7,7,8,8,9,9,10,10,11,11,12,12,13,13,14,14,15,15,16,16,18,18,19,19,20,20,21,21,22,22,23,23,24,24,25,25,26,26,27,27,28,28,29,29,30,30,34,34,36,36,37,37,38,38,40,40,41,41,42,42,43,43,46,46,47,47,48,48,49,49,50,50,51,51,52,52,53,53,54,54,55,55,56,56,57,57,58,58,60,60],"right_children":[2,4,6,8,10,12,14,16,18,20,22,24,26,28,30,32,34,-1,36,38,40,42,44,46,48,50,52,54,56,58,60,-1,-1,-1,62,-1,64,66,68,-1,70,72,74,76,-1,-1,78,80,82,84,86,88,90,92,94,96,98,100,102,-1,104,-1,-1,-1,-1,-1,-1,-1,-1,-1,-1,-1,-1,-1,-1,-1,-1,-1,-1,-1,-1,-1,-1,-1,-1,-1,-1,-1,-1,-1,-1,-1,-1,-1,-1,-1,-1,-1,-1,-1,-1,-1,-1,-1,-1],"split_conditions":[2.385E3,2.169E3,2.551E3,2.101E3,2.279E3,2.453E3,2.692E3,2.016E3,2.14E3,2.217E3,2.326E3,2.386E3,2.5E3,2.631E3,2.759E3,1.992E3,8.39322E1,-4.8062506E0,1.992495E2,1.8479165E-2,-8.3441496E-2,2.309E3,2.4E3,-1.7006803E-1,2.403E3,3.518022E2,1.2974977E-1,2.605E3,2.668E3,2.743E3,-1.525074E-1,-8.269927E0,-6.900282E0,-6.1158004E0,2.062E3,-4.1312294E0,2.152E3,2.164E3,1.859946E-2,-4.292813E0,7.87096E1,1.8656716E-2,2.299E3,-1.5925059E-1,-4.3380985E0,3.9049404E1,2.372E3,-1.8527097E-1,2.396E3,2.428E3,5.212167E2,2.491E3,2.454E3,-2.0124406E-1,3.518022E2,-4.8867586E-1,2.653E3,2.694E3,2.769E3,3.874347E0,2.775E3,-4.7179136E0,-6.3505373E0,-2.937671E0,5.078614E-1,-1.2365845E0,-3.6875508E0,-1.333144E0,-3.0543628E0,-2.5193017E0,-9.692505E-1,-1.8633612E0,-1.4381038E0,-7.9589844E-2,-1.315069E0,-2.3914692E0,-7.22289E-1,-4.274048E0,4.29357E-1,-2.3570619E0,-1.1125569E-1,2.645741E0,4.5848337E-1,4.366699E0,1.4254482E0,-3.0594485E0,1.0113575E0,2.4877931E-1,2.064339E0,6.285132E0,2.649939E0,1.7615541E0,3.2756987E0,3.8636596E0,7.056787E0,2.1589456E0,4.457581E0,2.8440256E0,5.0308876E0,6.6316648E0,5.3938375E0,6.2765446E0,1.8257447E0,7.141415E0,9.346496E0],"split_indices":[1,2,3,1,3,2,2,2,2,1,1,1,2,1,3,2,4,0,4,0,0,2,2,0,2,4,0,2,2,3,0,0,0,0,3,0,3,1,0,0,4,0,1,0,0,0,3,0,1,1,4,1,1,0,4,0,3,3,1,0,2,0,0,0,0,0,0,0,0,0,0,0,0,0,0,0,0,0,0,0,0,0,0,0,0,0,0,0,0,0,0,0,0,0,0,0,0,0,0,0,0,0,0,0,0],"split_type":[0,0,0,0,0,0,0,0,0,0,0,0,0,0,0,0,0,0,0,0,0,0,0,0,0,0,0,0,0,0,0,0,0,0,0,0,0,0,0,0,0,0,0,0,0,0,0,0,0,0,0,0,0,0,0,0,0,0,0,0,0,0,0,0,0,0,0,0,0,0,0,0,0,0,0,0,0,0,0,0,0,0,0,0,0,0,0,0,0,0,0,0,0,0,0,0,0,0,0,0,0,0,0,0,0],"sum_hessian":[7.007E3,3.439E3,3.568E3,1.504E3,1.935E3,1.377E3,2.191E3,1.15E3,3.54E2,2.19E2,1.716E3,7.18E2,6.59E2,1.698E3,4.93E2,7.17E2,4.33E2,1.3E2,2.24E2,1.38E2,8.1E1,7.62E2,9.54E2,2.7E1,6.91E2,2.34E2,4.25E2,5.61E2,1.137E3,4.31E2,6.2E1,7.4E1,6.43E2,3.65E2,6.8E1,2.17E2,7E0,9.4E1,4.4E1,4E0,7.7E1,2.6E2,5.02E2,9.49E2,5E0,1E0,2.6E1,2.79E2,4.12E2,2.28E2,6E0,4.12E2,1.3E1,2.49E2,3.12E2,8.58E2,2.79E2,2.57E2,1.74E2,3E0,5.9E1,5.2E1,1.6E1,6E0,1E0,3E0,9.1E1,6E0,3.8E1,6.4E1,1.3E1,2.05E2,5.5E1,5E0,4.97E2,1.8E1,9.31E2,1E0,2.5E1,7E0,2.72E2,1E1,4.02E2,2E0,2.26E2,2E0,4E0,5E0,4.07E2,2E0,1.1E1,1.1E1,2.38E2,3.1E2,2E0,4E0,8.54E2,6E0,2.73E2,5.1E1,2.06E2,1.73E2,1E0,3.3E1,2.6E1],"tree_param":{"num_deleted":"0","num_feature":"5","num_nodes":"105","size_leaf_vector":"1"}},{"base_weights":[2.068895E-2,-7.983537E0,7.766491E0,-1.4628032E1,-3.30481E0,2.7296069E0,1.1119996E1,-1.5973179E1,-1.1603354E1,-7.848372E0,-2.5889332E0,1.1348258E0,4.9017053E0,1.0108834E1,1.4667637E1,-5.702273E0,-1.5576924E1,-1.2944414E1,-1.0540872E1,-8.473807E0,-6.3253727E0,-3.2273576E0,-1.3630148E0,5.3303943E0,8.966978E-1,4.3290253E0,5.9299498E0,8.703864E0,1.0785381E1,1.3929797E1,1.9236635E1,-4.8085985E0,-1.4336075E1,-1.3438825E1,-1.0742041E1,-9.295868E0,-3.2933655E0,-1.0078389E1,-7.884195E0,-6.9955506E0,-2.4748013E0,-4.148948E0,-2.8206358E0,-2.3816586E0,-9.5238745E-1,4.6921326E1,1.142733E0,2.4174549E-1,2.3007016E0,-1.3683593E0,4.391449E0,5.6241403E0,1.1034446E1,4.636144E0,8.8177E0,1.007057E1,1.1340607E1,1.7856794E1,1.3584023E1,2.2763186E0,1.9494177E1,-3.8539488E0,-4.698597E0,-3.8795898E0,-5.0816646E0,-2.0366712E0,-4.558948E0,-2.9778147E0,-9.041016E-1,-2.4278321E0,-3.518042E0,-2.3876796E0,4.3168947E-1,-1.8794262E0,-3.8346472E0,-2.7578027E0,3.3948487E-1,-1.1456195E0,-1.5647087E0,-9.2405117E-1,-5.183449E-1,-6.43355E-1,-3.5416443E0,-5.043282E-1,-2.4594877E-2,-3.3594728E0,3.3192005E1,1.0988228E0,-2.1106715E0,1.5525286E-1,-8.738151E-1,4.714197E0,6.5483326E-1,-3.0658448E0,1.0197877E0,1.2094874E0,1.6757644E0,-2.4735719E-1,1.717498E0,6.481934E-3,3.6400712E0,1.5855695E0,6.063868E-1,2.317293E0,2.7768114E0,3.0368695E0,-5.865967E-1,3.1965373E0,3.5261424E0,8.5294193E-1,5.4829407E0,2.2015326E0,4.2290783E0,5.888522E0,1.7160646E0],"categories":[],"categories_nodes":[],"categories_segments":[],"categories_sizes":[],"default_left":[0,0,0,0,0,0,0,0,0,0,0,0,0,0,0,0,0,0,0,0,0,0,0,0,0,0,0,0,0,0,0,0,0,0,0,0,0,0,0,0,0,0,0,0,0,0,0,0,0,0,0,0,0,0,0,0,0,0,0,0,0,0,0,0,0,0,0,0,0,0,0,0,0,0,0,0,0,0,0,0,0,0,0,0,0,0,0,0,0,0,0,0,0,0,0,0,0,0,0,0,0,0,0,0,0,0,0,0,0,0,0,0,0,0,0],"id":9,"left_children":[1,3,5,7,9,11,13,15,17,19,21,23,25,27,29,-1,31,33,35,37,39,41,43,45,47,49,51,53,55,57,59,-1,61,63,65,67,-1,69,71,73,75,77,79,81,83,85,87,89,91,93,95,97,99,101,103,105,107,109,111,-1,113,-1,-1,-1,-1,-1,-1,-1,-1,-1,-1,-1,-1,-1,-1,-1,-1,-1,-1,-1,-1,-1,-1,-1,-1,-1,-1,-1,-1,-1,-1,-1,-1,-1,-1,-1,-1,-1,-1,-1,-1,-1,-1,-1,-1,-1,-1,-1,-1,-1,-1,-1,-1,-1,-1],"loss_changes":[4.3455206E5,1.0711122E5,6.013614E4,5.6084062E3,6.563004E3,4.930668E3,7.52125E3,8.85875E2,4.9333984E2,2.0834766E2,1.365249E3,8.174651E2,3.294082E2,1.4906562E3,1.3232422E3,0E0,2.6067188E2,6.3615234E1,3.5058594E1,1.021875E2,1.9945508E2,4.1935254E2,2.4911975E2,7.6098057E3,7.166971E2,1.4506787E2,2.7043506E2,2.1241406E2,3.3071094E2,3.1414844E2,4.1089844E1,0E0,2.7873828E2,5.059961E1,6.011948E2,2.5512793E2,0E0,6.220752E1,1.1248633E2,2.2016992E2,3.4958698E2,1.0337305E2,2.2186182E2,3.5906537E2,2.7259802E2,1.6052184E4,8.707551E2,4.651573E2,3.5797424E2,2.4573436E2,1.4380713E2,1.3674414E2,1.3288708E2,1.8170563E1,1.829961E2,3.338086E2,5.121875E1,1.370625E2,1.1170391E3,0E0,5.019531E-1,0E0,0E0,0E0,0E0,0E0,0E0,0E0,0E0,0E0,0E0,0E0,0E0,0E0,0E0,0E0,0E0,0E0,0E0,0E0,0E0,0E0,0E0,0E0,0E0,0E0,0E0,0E0,0E0,0E0,0E0,0E0,0E0,0E0,0E0,0E0,0E0,0E0,0E0,0E0,0E0,0E0,0E0,0E0,0E0,0E0,0E0,0E0,0E0,0E0,0E0,0E0,0E0,0E0,0E0],"parents":[2147483647,0,0,1,1,2,2,3,3,4,4,5,5,6,6,7,7,8,8,9,9,10,10,11,11,12,12,13,13,14,14,16,16,17,17,18,18,19,19,20,20,21,21,22,22,23,23,24,24,25,25,26,26,27,27,28,28,29,29,30,30,32,32,33,33,34,34,35,35,37,37,38,38,39,39,40,40,41,41,42,42,43,43,44,44,45,45,46,46,47,47,48,48,49,49,50,50,51,51,52,52,53,53,54,54,55,55,56,56,57,57,58,58,60,60],"right_children":[2,4,6,8,10,12,14,16,18,20,22,24,26,28,30,-1,32,34,36,38,40,42,44,46,48,50,52,54,56,58,60,-1,62,64,66,68,-1,70,72,74,76,78,80,82,84,86,88,90,92,94,96,98,100,102,104,106,108,110,112,-1,114,-1,-1,-1,-1,-1,-1,-1,-1,-1,-1,-1,-1,-1,-1,-1,-1,-1,-1,-1,-1,-1,-1,-1,-1,-1,-1,-1,-1,-1,-1,-1,-1,-1,-1,-1,-1,-1,-1,-1,-1,-1,-1,-1,-1,-1,-1,-1,-1,-1,-1,-1,-1,-1,-1],"split_conditions":[2.39E3,2.154E3,2.571E3,2.027E3,2.266E3,2.477E3,2.685E3,1.992E3,2.124E3,2.215E3,2.338E3,2.386E3,2.514E3,2.637E3,2.759E3,-5.702273E0,2.011E3,9.85326E1,-2.7429825E-2,-3.68392E-2,7.66094E1,2.305E3,-9.347541E-3,-1.7006803E-1,2.429E3,2.45E3,1.992495E2,-1.8527097E-1,2.651E3,2.694E3,2.763E3,-4.8085985E0,2.016E3,6.480282E-2,2.062E3,-2.7507793E-2,-3.2933655E0,3.89192E1,2.132766E2,5.91229E1,-2.7813833E-2,5.64287E1,2.790438E-2,1.545869E2,2.352E3,-2.6914153E-1,2.398E3,1.378507E2,2.396E3,5.212167E2,4.16514E1,2.495E3,2.447E3,-2.3056349E-1,2.595E3,2.683E3,2.62077E1,-3.181643E-1,2.704E3,2.2763186E0,1.8857E2,-3.8539488E0,-4.698597E0,-3.8795898E0,-5.0816646E0,-2.0366712E0,-4.558948E0,-2.9778147E0,-9.041016E-1,-2.4278321E0,-3.518042E0,-2.3876796E0,4.3168947E-1,-1.8794262E0,-3.8346472E0,-2.7578027E0,3.3948487E-1,-1.1456195E0,-1.5647087E0,-9.2405117E-1,-5.183449E-1,-6.43355E-1,-3.5416443E0,-5.043282E-1,-2.4594877E-2,-3.3594728E0,3.3192005E1,1.0988228E0,-2.1106715E0,1.5525286E-1,-8.738151E-1,4.714197E0,6.5483326E-1,-3.0658448E0,1.0197877E0,1.2094874E0,1.6757644E0,-2.4735719E-1,1.717498E0,6.481934E-3,3.6400712E0,1.5855695E0,6.063868E-1,2.317293E0,2.7768114E0,3.0368695E0,-5.865967E-1,3.1965373E0,3.5261424E0,8.5294193E-1,5.4829407E0,2.2015326E0,4.2290783E0,5.888522E0,1.7160646E0],"split_indices":[2,1,2,2,1,2,3,1,2,2,3,1,2,2,3,0,3,4,0,0,4,3,0,0,2,1,4,0,3,3,2,0,3,0,3,0,0,4,4,4,0,4,0,4,3,0,2,4,1,4,4,3,1,0,2,1,4,0,3,0,4,0,0,0,0,0,0,0,0,0,0,0,0,0,0,0,0,0,0,0,0,0,0,0,0,0,0,0,0,0,0,0,0,0,0,0,0,0,0,0,0,0,0,0,0,0,0,0,0,0,0,0,0,0,0],"split_type":[0,0,0,0,0,0,0,0,0,0,0,0,0,0,0,0,0,0,0,0,0,0,0,0,0,0,0,0,0,0,0,0,0,0,0,0,0,0,0,0,0,0,0,0,0,0,0,0,0,0,0,0,0,0,0,0,0,0,0,0,0,0,0,0,0,0,0,0,0,0,0,0,0,0,0,0,0,0,0,0,0,0,0,0,0,0,0,0,0,0,0,0,0,0,0,0,0,0,0,0,0,0,0,0,0,0,0,0,0,0,0,0,0,0,0],"sum_hessian":[7.007E3,3.446E3,3.561E3,1.423E3,2.023E3,1.424E3,2.137E3,9.82E2,4.41E2,2.74E2,1.749E3,8.22E2,6.02E2,1.666E3,4.71E2,1.08E2,8.74E2,1.9E2,2.51E2,1.91E2,8.3E1,1.149E3,6E2,4.3E1,7.79E2,3.9E2,2.12E2,5.46E2,1.12E3,4.09E2,6.2E1,6.32E2,2.42E2,1.51E2,3.9E1,7.1E1,1.8E2,4.7E1,1.44E2,7E1,1.3E1,3.49E2,8E2,1.71E2,4.29E2,3E0,4E1,5.32E2,2.47E2,4E0,3.86E2,2.02E2,1E1,1.6E1,5.3E2,4.98E2,6.22E2,2.9E1,3.8E2,2E0,6E1,1.19E2,1.23E2,1.36E2,1.5E1,2.2E1,1.7E1,6.4E1,7E0,2.4E1,2.3E1,1.43E2,1E0,6.4E1,6E0,4E0,9E0,2.7E2,7.9E1,6.45E2,1.55E2,1.68E2,3E0,2.33E2,1.96E2,2E0,1E0,3.1E1,9E0,4.9E2,4.2E1,1E0,2.46E2,1E0,3E0,3E2,8.6E1,3E0,1.99E2,1E0,9E0,1.2E1,4E0,1.57E2,3.73E2,4.96E2,2E0,2.44E2,3.78E2,1E0,2.8E1,3E1,3.5E2,5.9E1,1E0],"tree_param":{"num_deleted":"0","num_feature":"5","num_nodes":"115","size_leaf_vector":"1"}},{"base_weights":[1.6175361E-2,-5.750086E0,5.3257456E0,-1.0130141E1,-2.3132007E0,1.7023777E0,7.7333846E0,-1.1382752E1,-8.211561E0,-5.031703E0,-1.8474234E0,5.2068377E-1,3.046181E0,7.00792E0,1.0390849E1,-1.490782E1,-1.1159907E1,-8.993083E0,-6.8572545E0,-5.5772657E0,-3.8288713E0,-2.5307336E0,-1.4411486E0,4.3528275E0,2.902546E-1,2.7569559E0,4.6452518E0,5.453002E0,7.366355E0,9.989895E0,1.5720758E1,-1.2271363E0,-4.513531E0,-3.4879713E0,-1.0622705E1,-8.867509E0,-4.9084063E0,-6.940386E0,-3.7971191E0,-3.2009401E0,-5.4362473E0,1.7024415E0,-4.109197E0,-2.8176541E0,-1.725885E0,-1.3842988E0,-7.622938E0,2.821322E1,7.9913475E-2,4.9950117E-1,-1.9081001E0,1.3529273E0,3.1436403E0,4.024181E0,8.306047E0,1.2082206E1,5.2914524E0,7.0238967E0,8.087128E0,1.3909695E1,9.708768E0,5.169141E0,3.4228272E0,-3.0992768E0,-3.718073E0,-2.6749296E0,-6.6695255E-1,-2.0888436E0,-3.3127442E-1,-1.4067104E0,3.6694336E-1,-6.7572516E-1,-1.676135E0,-1.5558473E0,1.4163392E0,-2.4732704E0,-9.9495906E-1,-8.024176E-1,-1.3498181E0,-5.4574096E-1,1.9651612E0,-4.300519E-1,1.2645427E0,5.340271E-1,-3.7863405E0,-4.131862E-1,2.7886598E0,-3.266869E-2,3.5499886E-1,-3.3655885E-1,-3.2883987E0,-4.2788088E-1,5.213628E-1,9.9018604E-1,-3.2574677E-1,2.2811646E0,9.9631923E-1,2.8271608E0,3.1982422E-1,1.6549073E-1,4.173609E0,1.6140144E0,-4.1513672E-1,1.2917481E-1,2.1111805E0,2.4448776E0,9.0702087E-1,7.249878E-1,4.277637E0,1.6126393E0,3.0068526E0],"categories":[],"categories_nodes":[],"categories_segments":[],"categories_sizes":[],"default_left":[0,0,0,0,0,0,0,0,0,0,0,0,0,0,0,0,0,0,0,0,0,0,0,0,0,0,0,0,0,0,0,0,0,0,0,0,0,0,0,0,0,0,0,0,0,0,0,0,0,0,0,0,0,0,0,0,0,0,0,0,0,0,0,0,0,0,0,0,0,0,0,0,0,0,0,0,0,0,0,0,0,0,0,0,0,0,0,0,0,0,0,0,0,0,0,0,0,0,0,0,0,0,0,0,0,0,0,0,0,0,0],"id":10,"left_children":[1,3,5,7,9,11,13,15,17,19,21,23,25,27,29,31,33,35,37,39,41,43,45,47,49,51,53,55,57,59,61,-1,-1,-1,63,65,-1,67,69,-1,71,73,75,77,79,81,83,-1,85,87,89,91,93,95,97,99,101,103,105,107,109,-1,-1,-1,-1,-1,-1,-1,-1,-1,-1,-1,-1,-1,-1,-1,-1,-1,-1,-1,-1,-1,-1,-1,-1,-1,-1,-1,-1,-1,-1,-1,-1,-1,-1,-1,-1,-1,-1,-1,-1,-1,-1,-1,-1,-1,-1,-1,-1,-1,-1],"loss_changes":[2.1459014E5,5.0557164E4,3.1819844E4,3.4561094E3,2.3762568E3,2.3136655E3,4.1531406E3,5.335469E2,5.596211E2,1.5910596E2,4.4330762E2,6.8485693E2,3.026123E2,9.212344E2,8.4308984E2,1.2709961E1,8.758594E1,1.9633594E2,2.9358398E1,7.6288574E1,1.4499634E2,1.334624E2,3.450984E2,1.6855176E4,3.3859177E2,3.1063818E2,2.0075732E2,2.862666E2,2.8851562E2,3.4761328E2,5.1850586E0,0E0,0E0,0E0,8.019531E1,9.8822266E1,0E0,2.0058594E1,4.155658E1,0E0,7.579883E1,1.2845721E2,2.5126282E2,9.372803E1,1.3540228E2,2.8267908E2,4.4545044E2,0E0,5.902499E2,2.7929102E2,4.4325397E2,1.3834929E2,3.050127E2,2.0127222E2,1.0325519E2,1.40018E2,1.9728223E2,8.125391E1,1.15796875E2,7.387012E1,5.0684375E2,0E0,0E0,0E0,0E0,0E0,0E0,0E0,0E0,0E0,0E0,0E0,0E0,0E0,0E0,0E0,0E0,0E0,0E0,0E0,0E0,0E0,0E0,0E0,0E0,0E0,0E0,0E0,0E0,0E0,0E0,0E0,0E0,0E0,0E0,0E0,0E0,0E0,0E0,0E0,0E0,0E0,0E0,0E0,0E0,0E0,0E0,0E0,0E0,0E0,0E0],"parents":[2147483647,0,0,1,1,2,2,3,3,4,4,5,5,6,6,7,7,8,8,9,9,10,10,11,11,12,12,13,13,14,14,15,15,16,16,17,17,18,18,19,19,20,20,21,21,22,22,23,23,24,24,25,25,26,26,27,27,28,28,29,29,30,30,34,34,35,35,37,37,38,38,40,40,41,41,42,42,43,43,44,44,45,45,46,46,48,48,49,49,50,50,51,51,52,52,53,53,54,54,55,55,56,56,57,57,58,58,59,59,60,60],"right_children":[2,4,6,8,10,12,14,16,18,20,22,24,26,28,30,32,34,36,38,40,42,44,46,48,50,52,54,56,58,60,62,-1,-1,-1,64,66,-1,68,70,-1,72,74,76,78,80,82,84,-1,86,88,90,92,94,96,98,100,102,104,106,108,110,-1,-1,-1,-1,-1,-1,-1,-1,-1,-1,-1,-1,-1,-1,-1,-1,-1,-1,-1,-1,-1,-1,-1,-1,-1,-1,-1,-1,-1,-1,-1,-1,-1,-1,-1,-1,-1,-1,-1,-1,-1,-1,-1,-1,-1,-1,-1,-1,-1,-1],"split_conditions":[2.372E3,2.16E3,2.551E3,2.022E3,2.29E3,2.45E3,2.698E3,1.987E3,2.13E3,2.23E3,2.322E3,-1.12180986E-1,8.00005E1,2.616E3,2.765E3,1.3196E0,2.008E3,2.9097053E-1,1.625976E2,-1.7006803E-1,-6.46293E-2,1.859946E-2,2.399E3,2.376E3,1.221937E2,2.491E3,2.512E3,2.558E3,2.663E3,2.694E3,4.65467E1,-1.2271363E0,-4.513531E0,-3.4879713E0,2.016E3,2.1925817E-1,-4.9084063E0,2.174E3,2.156E3,-3.2009401E0,-1.0954902E-1,-8.3441496E-2,-2.7813833E-2,7.24686E1,2.321E3,2.39E3,2.361E3,2.821322E1,1.8857E2,2.403E3,2.432E3,2.445E3,2.52E3,8.8122E1,2.566E3,-3.7257824E-2,2.634E3,-4.8867586E-1,2.9097053E-1,-3.181643E-1,2.704E3,5.169141E0,3.4228272E0,-3.0992768E0,-3.718073E0,-2.6749296E0,-6.6695255E-1,-2.0888436E0,-3.3127442E-1,-1.4067104E0,3.6694336E-1,-6.7572516E-1,-1.676135E0,-1.5558473E0,1.4163392E0,-2.4732704E0,-9.9495906E-1,-8.024176E-1,-1.3498181E0,-5.4574096E-1,1.9651612E0,-4.300519E-1,1.2645427E0,5.340271E-1,-3.7863405E0,-4.131862E-1,2.7886598E0,-3.266869E-2,3.5499886E-1,-3.3655885E-1,-3.2883987E0,-4.2788088E-1,5.213628E-1,9.9018604E-1,-3.2574677E-1,2.2811646E0,9.9631923E-1,2.8271608E0,3.1982422E-1,1.6549073E-1,4.173609E0,1.6140144E0,-4.1513672E-1,1.2917481E-1,2.1111805E0,2.4448776E0,9.0702087E-1,7.249878E-1,4.277637E0,1.6126393E0,3.0068526E0],"split_indices":[3,1,3,2,2,2,2,1,3,3,2,0,4,3,3,4,1,0,4,0,0,0,2,3,4,1,3,1,2,3,4,0,0,0,3,0,0,2,1,0,0,0,0,4,1,2,3,0,4,2,1,3,3,4,1,0,2,0,0,0,3,0,0,0,0,0,0,0,0,0,0,0,0,0,0,0,0,0,0,0,0,0,0,0,0,0,0,0,0,0,0,0,0,0,0,0,0,0,0,0,0,0,0,0,0,0,0,0,0,0,0],"split_type":[0,0,0,0,0,0,0,0,0,0,0,0,0,0,0,0,0,0,0,0,0,0,0,0,0,0,0,0,0,0,0,0,0,0,0,0,0,0,0,0,0,0,0,0,0,0,0,0,0,0,0,0,0,0,0,0,0,0,0,0,0,0,0,0,0,0,0,0,0,0,0,0,0,0,0,0,0,0,0,0,0,0,0,0,0,0,0,0,0,0,0,0,0,0,0,0,0,0,0,0,0,0,0,0,0,0,0,0,0,0,0],"sum_hessian":[7.007E3,3.359E3,3.648E3,1.476E3,1.883E3,1.457E3,2.191E3,8.9E2,5.86E2,2.74E2,1.609E3,7.76E2,6.81E2,1.724E3,4.67E2,4.9E1,8.41E2,3.68E2,2.18E2,1.86E2,8.8E1,5.98E2,1.011E3,4.3E1,7.33E2,5.79E2,1.02E2,3.26E2,1.398E3,4.37E2,3E1,1E0,4.8E1,4.39E2,4.02E2,3.64E2,4E0,2.11E2,7E0,3E0,1.83E2,4E0,8.4E1,4.39E2,1.59E2,1.003E3,8E0,1E0,4.2E1,6.7E2,6.3E1,1.26E2,4.53E2,8.9E1,1.3E1,6E0,3.2E2,9.55E2,4.43E2,2.6E1,4.11E2,2E1,1E1,3.51E2,5.1E1,3.61E2,3E0,2.1E2,1E0,6E0,1E0,9E0,1.74E2,1E0,3E0,1.2E1,7.2E1,4.07E2,3.2E1,1.58E2,1E0,9.95E2,8E0,3E0,5E0,3.7E1,5E0,3.55E2,3.15E2,5.9E1,4E0,1.5E1,1.11E2,4.37E2,1.6E1,1.3E1,7.6E1,1.1E1,2E0,1E0,5E0,3.16E2,4E0,2E0,9.53E2,4.37E2,6E0,1E0,2.5E1,2.9E1,3.82E2],"tree_param":{"num_deleted":"0","num_feature":"5","num_nodes":"111","size_leaf_vector":"1"}},{"base_weights":[1.47071555E-2,-3.8764994E0,3.90258E0,-7.0131645E0,-1.4349043E0,1.5762087E0,5.5853934E0,-7.862515E0,-5.357894E0,-2.700474E0,-1.0576199E0,6.712597E-1,2.5557272E0,5.322812E0,8.969484E0,-1.19014845E1,-7.756444E0,-5.9837646E0,-4.6663175E0,-3.7082314E0,-2.2820992E0,-1.4412695E0,-5.514847E-1,4.160091E0,5.2852774E-1,2.112122E0,3.2408059E0,4.897877E0,6.2577224E0,8.243552E0,1.1588951E1,-3.6349814E0,-1.0430603E0,-2.5823717E0,-7.5070615E0,-5.853293E0,-3.52626E0,-3.46873E0,-5.020652E0,-4.038568E0,-3.9913237E-1,-2.0215921E0,-3.1278307E0,-1.6087298E0,-7.9598254E-1,-5.806148E-1,2.7836792E0,4.4092285E1,-2.669329E-1,-5.987671E0,6.1718816E-1,2.003459E0,1.099126E1,-2.6427245E0,3.3370442E0,4.911648E0,-8.1337893E-1,6.292659E0,9.325684E-1,9.611023E-1,8.348078E0,1.2184245E1,2.368327E0,-2.324066E0,-2.0859284E0,-1.7726464E0,1.3375854E0,5.9678787E-1,-1.2300959E0,-1.9140617E0,-1.3422021E0,-1.0105754E0,-1.629706E0,-1.7484375E0,3.3533603E-1,-7.4392164E-1,-8.415804E-2,-8.494546E-1,-1.995205E0,-4.4801927E-1,-7.80202E-1,-2.745492E-1,1.9622315E0,-1.5537253E-1,-6.247998E0,-4.139722E0,2.398125E1,6.129986E-1,-1.388921E0,1.7660402E0,-2.9076416E0,1.6782014E-1,1.949299E0,-1.6203552E0,6.205307E-1,4.0813847E0,8.067627E-2,-1.4395753E-1,-9.19043E-1,4.267639E0,9.7331196E-1,1.4641213E0,3.2540529E0,1.8370023E0,2.5314224E0,-1.1971192E0,1.6634034E0,3.4211427E-1,2.5205317E0,4.2906404E0,2.8609376E0,9.452271E-1,1.20520025E-1],"categories":[],"categories_nodes":[],"categories_segments":[],"categories_sizes":[],"default_left":[0,0,0,0,0,0,0,0,0,0,0,0,0,0,0,0,0,0,0,0,0,0,0,0,0,0,0,0,0,0,0,0,0,0,0,0,0,0,0,0,0,0,0,0,0,0,0,0,0,0,0,0,0,0,0,0,0,0,0,0,0,0,0,0,0,0,0,0,0,0,0,0,0,0,0,0,0,0,0,0,0,0,0,0,0,0,0,0,0,0,0,0,0,0,0,0,0,0,0,0,0,0,0,0,0,0,0,0,0,0,0,0,0],"id":11,"left_children":[1,3,5,7,9,11,13,15,17,19,21,23,25,27,29,31,33,35,37,39,41,43,45,47,49,51,53,55,57,59,61,-1,-1,-1,63,65,-1,67,69,71,73,75,77,79,81,83,-1,85,87,89,91,93,95,97,99,101,-1,103,105,-1,107,109,111,-1,-1,-1,-1,-1,-1,-1,-1,-1,-1,-1,-1,-1,-1,-1,-1,-1,-1,-1,-1,-1,-1,-1,-1,-1,-1,-1,-1,-1,-1,-1,-1,-1,-1,-1,-1,-1,-1,-1,-1,-1,-1,-1,-1,-1,-1,-1,-1,-1,-1],"loss_changes":[1.06035766E5,2.681755E4,1.3716656E4,2.1131172E3,9.3825684E2,1.3039724E3,1.7596719E3,3.408164E2,1.9845215E2,1.8210986E2,2.9435657E2,3.7974255E2,2.0801562E2,7.202031E2,1.8019043E2,1.3671875E0,1.4517188E2,1.3522852E2,8.9944824E1,1.4158643E2,6.461951E1,9.208325E1,1.9352667E2,5.315193E3,4.3005957E2,3.9478784E2,1.6509595E2,1.4995312E2,1.0333789E2,3.4891113E1,1.3032422E2,0E0,0E0,0E0,4.869922E1,1.7923047E2,0E0,2.184378E2,1.1489111E2,9.282446E1,1.1357406E2,1.9792249E2,5.8415344E1,7.448242E1,1.6337863E2,8.220431E2,0E0,7.328448E3,2.9167813E2,4.9694165E2,2.4409341E2,2.1709546E2,1.3644781E2,3.0801163E0,2.2830664E2,1.885039E2,0E0,1.6010938E2,1.3565173E2,0E0,3.453711E1,1.5016357E1,3.350401E0,0E0,0E0,0E0,0E0,0E0,0E0,0E0,0E0,0E0,0E0,0E0,0E0,0E0,0E0,0E0,0E0,0E0,0E0,0E0,0E0,0E0,0E0,0E0,0E0,0E0,0E0,0E0,0E0,0E0,0E0,0E0,0E0,0E0,0E0,0E0,0E0,0E0,0E0,0E0,0E0,0E0,0E0,0E0,0E0,0E0,0E0,0E0,0E0,0E0,0E0],"parents":[2147483647,0,0,1,1,2,2,3,3,4,4,5,5,6,6,7,7,8,8,9,9,10,10,11,11,12,12,13,13,14,14,15,15,16,16,17,17,18,18,19,19,20,20,21,21,22,22,23,23,24,24,25,25,26,26,27,27,28,28,29,29,30,30,34,34,35,35,37,37,38,38,39,39,40,40,41,41,42,42,43,43,44,44,45,45,47,47,48,48,49,49,50,50,51,51,52,52,53,53,54,54,55,55,57,57,58,58,60,60,61,61,62,62],"right_children":[2,4,6,8,10,12,14,16,18,20,22,24,26,28,30,32,34,36,38,40,42,44,46,48,50,52,54,56,58,60,62,-1,-1,-1,64,66,-1,68,70,72,74,76,78,80,82,84,-1,86,88,90,92,94,96,98,100,102,-1,104,106,-1,108,110,112,-1,-1,-1,-1,-1,-1,-1,-1,-1,-1,-1,-1,-1,-1,-1,-1,-1,-1,-1,-1,-1,-1,-1,-1,-1,-1,-1,-1,-1,-1,-1,-1,-1,-1,-1,-1,-1,-1,-1,-1,-1,-1,-1,-1,-1,-1,-1,-1,-1,-1],"split_conditions":[2.392E3,2.165E3,2.584E3,2.022E3,2.309E3,2.477E3,2.751E3,1.987E3,2.14E3,2.23E3,2.338E3,2.386E3,2.516E3,2.662E3,2.775E3,1.985E3,2.004E3,2.4791113E-1,2.149E3,8.00005E1,2.305E3,2.790438E-2,3.518022E2,-1.7006803E-1,2.376E3,3.9609432E-1,2.492E3,2.683E3,2.9097053E-1,-1.3693628E-1,1.8857E2,-3.6349814E0,-1.0430603E0,-2.5823717E0,2.012E3,2.1925817E-1,-3.52626E0,1.92514E1,2.151E3,3.53424E1,2.176E3,2.301E3,9.64483E1,7.53602E1,2.355E3,2.427491E2,2.7836792E0,-2.6914153E-1,2.398E3,-5.593884E-2,3.518022E2,2.45E3,2.467E3,2.447E3,-4.8867586E-1,5.212167E2,-8.1337893E-1,1.10446386E-1,2.699E3,9.611023E-1,2.752E3,3.53424E1,-1.525074E-1,-2.324066E0,-2.0859284E0,-1.7726464E0,1.3375854E0,5.9678787E-1,-1.2300959E0,-1.9140617E0,-1.3422021E0,-1.0105754E0,-1.629706E0,-1.7484375E0,3.3533603E-1,-7.4392164E-1,-8.415804E-2,-8.494546E-1,-1.995205E0,-4.4801927E-1,-7.80202E-1,-2.745492E-1,1.9622315E0,-1.5537253E-1,-6.247998E0,-4.139722E0,2.398125E1,6.129986E-1,-1.388921E0,1.7660402E0,-2.9076416E0,1.6782014E-1,1.949299E0,-1.6203552E0,6.205307E-1,4.0813847E0,8.067627E-2,-1.4395753E-1,-9.19043E-1,4.267639E0,9.7331196E-1,1.4641213E0,3.2540529E0,1.8370023E0,2.5314224E0,-1.1971192E0,1.6634034E0,3.4211427E-1,2.5205317E0,4.2906404E0,2.8609376E0,9.452271E-1,1.20520025E-1],"split_indices":[2,3,2,3,2,2,3,2,2,3,3,1,2,3,2,3,2,0,2,4,2,0,4,0,3,0,3,1,0,0,4,0,0,0,3,0,0,4,1,4,1,2,4,4,2,4,0,0,2,0,4,1,1,1,0,4,0,0,1,0,1,4,0,0,0,0,0,0,0,0,0,0,0,0,0,0,0,0,0,0,0,0,0,0,0,0,0,0,0,0,0,0,0,0,0,0,0,0,0,0,0,0,0,0,0,0,0,0,0,0,0,0,0],"split_type":[0,0,0,0,0,0,0,0,0,0,0,0,0,0,0,0,0,0,0,0,0,0,0,0,0,0,0,0,0,0,0,0,0,0,0,0,0,0,0,0,0,0,0,0,0,0,0,0,0,0,0,0,0,0,0,0,0,0,0,0,0,0,0,0,0,0,0,0,0,0,0,0,0,0,0,0,0,0,0,0,0,0,0,0,0,0,0,0,0,0,0,0,0,0,0,0,0,0,0,0,0,0,0,0,0,0,0,0,0,0,0,0,0],"sum_hessian":[7.007E3,3.502E3,3.505E3,1.532E3,1.97E3,1.472E3,2.033E3,1.01E3,5.22E2,4.51E2,1.519E3,7.66E2,7.06E2,1.889E3,1.44E2,2.3E1,9.87E2,2.7E2,2.52E2,1.3E2,3.21E2,8.63E2,6.56E2,2.9E1,7.37E2,4.31E2,2.75E2,1.303E3,5.86E2,1.16E2,2.8E1,2.2E1,1E0,2.16E2,7.71E2,2.66E2,4E0,6E1,1.92E2,1.18E2,1.2E1,2.48E2,7.3E1,6.84E2,1.79E2,6.55E2,1E0,2E0,2.7E1,9E0,7.28E2,4.27E2,4E0,4E0,2.71E2,1.301E3,2E0,5.82E2,4E0,3E0,1.13E2,2.6E1,2E0,5.29E2,2.42E2,2.65E2,1E0,6E0,5.4E1,5.2E1,1.4E2,8.2E1,3.6E1,2E0,1E1,1.96E2,5.2E1,6.9E1,4E0,6.15E2,6.9E1,1.77E2,2E0,6.54E2,1E0,1E0,1E0,1.8E1,9E0,2E0,7E0,7.22E2,6E0,3E0,4.24E2,3E0,1E0,1E0,3E0,1E0,2.7E2,1.296E3,5E0,5.43E2,3.9E1,2E0,2E0,1E0,1.12E2,1.2E1,1.4E1,1E0,1E0],"tree_param":{"num_deleted":"0","num_feature":"5","num_nodes":"113","size_leaf_vector":"1"}},{"base_weights":[1.2836334E-2,-2.8407042E0,2.638872E0,-4.921919E0,-1.0928432E0,8.9628917E-1,3.8350744E0,-5.413469E0,-3.4318497E0,-2.3780634E0,-9.1723347E-1,1.9615887E-1,1.5038191E0,3.4554753E0,5.2033315E0,-7.587156E0,-5.3099318E0,-3.6287644E0,-2.2419734E0,-2.6975684E0,-4.954723E-1,-8.882233E-1,-1.6401417E0,-4.1792946E0,3.4606823E-1,4.891526E0,1.3876269E0,2.8415685E0,3.7667317E0,4.784057E0,6.8877544E0,-7.8302665E0,-1.1499317E0,-5.422551E0,-4.10083E0,-3.365988E0,-4.676494E0,-1.830375E0,-4.92048E0,-3.107501E0,-1.2525039E0,5.7515464E0,-1.0840394E0,-9.895131E-1,2.6474234E-1,-5.886377E0,-1.7742862E0,3.2335938E1,1.537061E-1,8.147542E0,-2.1640081E0,-5.754769E0,1.5273209E0,2.4684496E0,3.4502778E0,3.4745393E0,4.347275E0,7.997839E0,4.5239544E0,6.0842867E0,8.39571E0,-2.418861E0,-1.0116669E0,-1.6020446E0,-2.3517973E0,-8.2375026E-1,-1.7104124E0,-8.183643E-1,-1.1489017E0,-1.6591375E0,-8.8526565E-1,-6.6191196E-1,4.0720215E-1,-2.9375613E-1,-2.289496E0,-7.53188E-1,-1.5410272E0,1.0078125E0,-8.8284534E-1,2.3426515E-1,2.3539307E0,-5.06681E-1,5.153565E-1,-2.0394533E0,-2.9309312E-1,-6.316224E-2,1.6276745E0,-1.4679036E0,1.563946E-1,2.0384071E1,-6.550049E-1,2.0745327E0,2.4561064E-2,4.3801576E-1,3.681146E0,1.604004E-2,-1.4847656E0,-2.854601E0,1.1008301E0,4.2447534E-1,1.5654886E0,5.6186014E-1,8.612078E-1,1.1845442E0,4.2390582E-1,8.380722E-1,1.1210124E0,-1.0411866E0,1.3196743E0,1.6333008E-1,2.4790707E0,4.1804513E-1,1.4433857E0,9.263358E-1,1.9036609E0,1.024292E-1,2.6013505E0],"categories":[],"categories_nodes":[],"categories_segments":[],"categories_sizes":[],"default_left":[0,0,0,0,0,0,0,0,0,0,0,0,0,0,0,0,0,0,0,0,0,0,0,0,0,0,0,0,0,0,0,0,0,0,0,0,0,0,0,0,0,0,0,0,0,0,0,0,0,0,0,0,0,0,0,0,0,0,0,0,0,0,0,0,0,0,0,0,0,0,0,0,0,0,0,0,0,0,0,0,0,0,0,0,0,0,0,0,0,0,0,0,0,0,0,0,0,0,0,0,0,0,0,0,0,0,0,0,0,0,0,0,0,0,0,0,0],"id":12,"left_children":[1,3,5,7,9,11,13,15,17,19,21,23,25,27,29,31,33,35,37,39,41,43,-1,45,47,49,51,53,55,57,59,61,-1,63,65,67,69,71,73,75,77,79,81,83,85,-1,87,89,91,93,95,97,99,101,103,105,107,109,111,113,115,-1,-1,-1,-1,-1,-1,-1,-1,-1,-1,-1,-1,-1,-1,-1,-1,-1,-1,-1,-1,-1,-1,-1,-1,-1,-1,-1,-1,-1,-1,-1,-1,-1,-1,-1,-1,-1,-1,-1,-1,-1,-1,-1,-1,-1,-1,-1,-1,-1,-1,-1,-1,-1,-1,-1,-1],"loss_changes":[5.2521938E4,1.2213566E4,7.60492E3,1.1042578E3,4.1016748E2,6.3220056E2,1.1059766E3,2.187539E2,8.160303E1,1.3039148E2,2.075216E2,4.55344E2,3.065382E2,3.1356445E2,2.975664E2,1.5618164E1,1.2781836E2,7.4288086E1,5.383441E1,1.0688269E2,1.2756898E2,1.8711584E2,0E0,8.1936145E2,4.1179683E3,6.149276E2,7.780541E2,1.22078125E2,1.7539062E2,2.7979395E2,5.917285E1,2.051001E1,0E0,1.5828125E2,1.968805E2,6.796118E1,7.6517456E1,6.412215E1,6.732588E1,1.62729E2,3.450935E2,2.5111809E1,5.5441944E1,1.0047339E2,3.2001404E2,0E0,1.5289719E2,5.065412E3,3.2340338E2,4.7838306E2,5.584983E1,5.665211E2,3.066787E2,8.086841E1,2.1365356E2,1.2381445E2,1.6544629E2,4.897693E1,3.0991357E2,2.9724854E1,6.1379517E1,0E0,0E0,0E0,0E0,0E0,0E0,0E0,0E0,0E0,0E0,0E0,0E0,0E0,0E0,0E0,0E0,0E0,0E0,0E0,0E0,0E0,0E0,0E0,0E0,0E0,0E0,0E0,0E0,0E0,0E0,0E0,0E0,0E0,0E0,0E0,0E0,0E0,0E0,0E0,0E0,0E0,0E0,0E0,0E0,0E0,0E0,0E0,0E0,0E0,0E0,0E0,0E0,0E0,0E0,0E0,0E0],"parents":[2147483647,0,0,1,1,2,2,3,3,4,4,5,5,6,6,7,7,8,8,9,9,10,10,11,11,12,12,13,13,14,14,15,15,16,16,17,17,18,18,19,19,20,20,21,21,23,23,24,24,25,25,26,26,27,27,28,28,29,29,30,30,31,31,33,33,34,34,35,35,36,36,37,37,38,38,39,39,40,40,41,41,42,42,43,43,44,44,46,46,47,47,48,48,49,49,50,50,51,51,52,52,53,53,54,54,55,55,56,56,57,57,58,58,59,59,60,60],"right_children":[2,4,6,8,10,12,14,16,18,20,22,24,26,28,30,32,34,36,38,40,42,44,-1,46,48,50,52,54,56,58,60,62,-1,64,66,68,70,72,74,76,78,80,82,84,86,-1,88,90,92,94,96,98,100,102,104,106,108,110,112,114,116,-1,-1,-1,-1,-1,-1,-1,-1,-1,-1,-1,-1,-1,-1,-1,-1,-1,-1,-1,-1,-1,-1,-1,-1,-1,-1,-1,-1,-1,-1,-1,-1,-1,-1,-1,-1,-1,-1,-1,-1,-1,-1,-1,-1,-1,-1,-1,-1,-1,-1,-1,-1,-1,-1,-1,-1],"split_conditions":[2.384E3,2.165E3,2.557E3,2.101E3,2.29E3,2.434E3,2.698E3,1.987E3,4.600239E-2,3.7126414E-2,2.4791113E-1,-1.8527097E-1,2.432E3,2.637E3,2.763E3,1.985E3,1.031007E2,8.14522E1,2.164E3,5.16689E1,4.6390794E-2,7.1333036E-2,-1.6401417E0,2.383E3,-1.7006803E-1,2.42E3,2.423E3,9.611688E-3,5.64287E1,2.694E3,2.775E3,9.509319E-2,-1.1499317E0,2.038E3,1.705134E2,-9.208103E-3,2.148E3,1.625976E2,7.391666E-2,3.26915E1,5.91229E1,3.7337814E-2,6.71316E1,2.279E3,2.369E3,-5.886377E0,2.395E3,2.386E3,2.369E3,2.412E3,5.64287E1,5.212167E2,2.132766E2,2.37527E1,8.8122E1,2.645E3,2.617E3,4.59502E1,-8.0913424E-2,-8.275862E-2,2.759E3,-2.418861E0,-1.0116669E0,-1.6020446E0,-2.3517973E0,-8.2375026E-1,-1.7104124E0,-8.183643E-1,-1.1489017E0,-1.6591375E0,-8.8526565E-1,-6.6191196E-1,4.0720215E-1,-2.9375613E-1,-2.289496E0,-7.53188E-1,-1.5410272E0,1.0078125E0,-8.8284534E-1,2.3426515E-1,2.3539307E0,-5.06681E-1,5.153565E-1,-2.0394533E0,-2.9309312E-1,-6.316224E-2,1.6276745E0,-1.4679036E0,1.563946E-1,2.0384071E1,-6.550049E-1,2.0745327E0,2.4561064E-2,4.3801576E-1,3.681146E0,1.604004E-2,-1.4847656E0,-2.854601E0,1.1008301E0,4.2447534E-1,1.5654886E0,5.6186014E-1,8.612078E-1,1.1845442E0,4.2390582E-1,8.380722E-1,1.1210124E0,-1.0411866E0,1.3196743E0,1.6333008E-1,2.4790707E0,4.1804513E-1,1.4433857E0,9.263358E-1,1.9036609E0,1.024292E-1,2.6013505E0],"split_indices":[2,3,3,1,2,2,2,1,0,0,0,0,1,2,2,3,4,4,1,4,0,0,0,3,0,3,3,0,4,3,2,0,0,1,4,0,1,4,0,4,4,0,4,3,2,0,3,1,1,1,4,4,4,4,4,3,1,4,0,0,3,0,0,0,0,0,0,0,0,0,0,0,0,0,0,0,0,0,0,0,0,0,0,0,0,0,0,0,0,0,0,0,0,0,0,0,0,0,0,0,0,0,0,0,0,0,0,0,0,0,0,0,0,0,0,0,0],"split_type":[0,0,0,0,0,0,0,0,0,0,0,0,0,0,0,0,0,0,0,0,0,0,0,0,0,0,0,0,0,0,0,0,0,0,0,0,0,0,0,0,0,0,0,0,0,0,0,0,0,0,0,0,0,0,0,0,0,0,0,0,0,0,0,0,0,0,0,0,0,0,0,0,0,0,0,0,0,0,0,0,0,0,0,0,0,0,0,0,0,0,0,0,0,0,0,0,0,0,0,0,0,0,0,0,0,0,0,0,0,0,0,0,0,0,0,0,0],"sum_hessian":[7.007E3,3.358E3,3.649E3,1.532E3,1.826E3,1.486E3,2.163E3,1.15E3,3.82E2,2.18E2,1.608E3,6.91E2,7.95E2,1.696E3,4.67E2,4.9E1,1.101E3,3.26E2,5.6E1,1.86E2,3.2E1,1.599E3,9E0,2.2E1,6.69E2,2.5E1,7.7E2,5.74E2,1.122E3,3.77E2,9E1,4.5E1,4E0,1.004E3,9.7E1,2.64E2,6.2E1,5E1,6E0,1.44E2,4.2E1,2E0,3E1,1.47E3,1.29E2,2E0,2E1,3E0,6.66E2,1.7E1,8E0,1.4E1,7.56E2,3.59E2,2.15E2,7.51E2,3.71E2,2.6E1,3.51E2,6.2E1,2.8E1,4.2E1,3E0,9.74E2,3E1,5.4E1,4.3E1,1.14E2,1.5E2,4E1,2.2E1,4.5E1,5E0,3E0,3E0,1.13E2,3.1E1,1.1E1,3.1E1,1E0,1E0,2.5E1,5E0,2E0,1.468E3,1.19E2,1E1,8E0,1.2E1,1E0,2E0,6E0,6.6E2,7E0,1E1,5E0,3E0,1E1,4E0,7.35E2,2.1E1,1.47E2,2.12E2,1.72E2,4.3E1,2.12E2,5.39E2,2E0,3.69E2,1E0,2.5E1,3E1,3.21E2,6E0,5.6E1,1E0,2.7E1],"tree_param":{"num_deleted":"0","num_feature":"5","num_nodes":"117","size_leaf_vector":"1"}},{"base_weights":[1.07646575E-2,-2.13111E0,1.7490629E0,-3.554971E0,-9.489847E-1,4.8825252E-1,2.6512623E0,-4.1057763E0,-2.9038668E0,-1.9569079E0,-7.562419E-1,9.0128906E-2,9.6479493E-1,2.4527087E0,4.171959E0,-4.074082E0,-3.2521365E0,-1.7856785E0,-3.0923676E0,-3.1371245E0,-1.5148636E0,-7.3825353E-1,-3.890625E0,-2.5638835E0,1.7383441E-1,7.7371583E0,9.171525E-1,1.9302008E0,2.6932175E0,3.928138E0,5.970257E0,-6.5779796E0,-3.9982374E0,-2.2516737E0,9.118734E-1,-4.8492846E0,-2.745619E0,-1.4422145E0,-4.1374564E0,3.4157307E0,-1.6573443E0,-1.0486352E0,-5.8374786E-1,-1.6226808E0,-1.8978516E0,-8.5410565E-1,-1.218158E1,2.7567444E1,4.502188E-2,4.02854E0,-5.332031E-1,-7.5178223E0,9.6223867E-1,1.6313549E0,2.4362395E0,2.5046048E0,3.2890716E0,4.044401E0,1.9843261E0,2.382129E0,4.1124625E0,-2.069942E0,-7.04126E-1,-1.7393273E0,-1.178369E0,-1.0007982E0,-5.180332E-1,-1.4293946E-1,9.221375E-1,-1.8063424E0,-1.243042E0,-8.040909E-1,-2.0048742E0,-9.357924E-1,4.7570804E-1,-1.7782971E0,-7.1897465E-1,-2.88208E-1,1.3449464E0,-5.9308773E-1,-2.7144002E-3,-7.844854E-1,-2.8790483E-1,1.4228028E0,-1.7994049E-1,7.99292E-1,-1.1113404E0,-1.4093354E0,3.0147776E-1,-2.4532472E-1,-4.709082E0,1.7326466E1,-5.2399904E-1,7.687737E-2,-4.3806365E-1,7.89917E-2,-3.1893313E-1,-3.006348E0,-1.171875E-3,2.1215773E0,2.756147E-1,1.8267335E0,4.747364E-1,6.873228E-1,3.8405275E0,7.690321E-1,-1.3580079E0,-7.8021973E-1,1.01117E0,1.2127686E-1,1.2385039E0,-1.714437E-1,1.4960659E0,-3.8272706E-1,1.3586884E0],"categories":[],"categories_nodes":[],"categories_segments":[],"categories_sizes":[],"default_left":[0,0,0,0,0,0,0,0,0,0,0,0,0,0,0,0,0,0,0,0,0,0,0,0,0,0,0,0,0,0,0,0,0,0,0,0,0,0,0,0,0,0,0,0,0,0,0,0,0,0,0,0,0,0,0,0,0,0,0,0,0,0,0,0,0,0,0,0,0,0,0,0,0,0,0,0,0,0,0,0,0,0,0,0,0,0,0,0,0,0,0,0,0,0,0,0,0,0,0,0,0,0,0,0,0,0,0,0,0,0,0,0,0,0,0],"id":13,"left_children":[1,3,5,7,9,11,13,15,17,19,21,23,25,27,29,31,-1,33,35,37,39,41,43,45,47,49,51,53,55,57,59,61,63,65,67,69,71,73,75,77,79,81,83,-1,85,87,89,91,93,-1,95,97,99,101,103,105,107,109,111,-1,113,-1,-1,-1,-1,-1,-1,-1,-1,-1,-1,-1,-1,-1,-1,-1,-1,-1,-1,-1,-1,-1,-1,-1,-1,-1,-1,-1,-1,-1,-1,-1,-1,-1,-1,-1,-1,-1,-1,-1,-1,-1,-1,-1,-1,-1,-1,-1,-1,-1,-1,-1,-1,-1,-1],"loss_changes":[2.6096031E4,5.2818164E3,4.399702E3,4.9876953E2,3.320818E2,3.0631534E2,6.706416E2,1.1997949E2,1.3274951E2,1.3871729E2,7.848761E1,1.9616464E2,2.3005292E2,2.4575977E2,9.010986E1,1.19359375E2,0E0,1.23986725E2,3.2784277E2,1.1949786E2,1.4756903E2,6.825232E1,1.3939835E1,4.33587E2,3.0157463E3,2.4250595E2,2.852339E2,9.175244E1,1.4516895E2,4.4178955E1,7.349048E1,1.2399475E1,7.178125E1,4.14794E1,4.6486656E1,5.0318604E1,1.02957275E2,1.5221071E2,1.2915356E2,3.2335922E1,1.03765625E2,6.3810486E1,8.501874E1,0E0,5.1080185E1,1.762134E2,1.4695569E2,3.6405493E3,2.7127576E2,0E0,1.5461502E0,7.52003E1,1.8708679E2,7.7776855E1,3.212644E2,4.4225488E2,1.6476245E2,6.4640625E1,1.1795928E2,0E0,4.3928986E1,0E0,0E0,0E0,0E0,0E0,0E0,0E0,0E0,0E0,0E0,0E0,0E0,0E0,0E0,0E0,0E0,0E0,0E0,0E0,0E0,0E0,0E0,0E0,0E0,0E0,0E0,0E0,0E0,0E0,0E0,0E0,0E0,0E0,0E0,0E0,0E0,0E0,0E0,0E0,0E0,0E0,0E0,0E0,0E0,0E0,0E0,0E0,0E0,0E0,0E0,0E0,0E0,0E0,0E0],"parents":[2147483647,0,0,1,1,2,2,3,3,4,4,5,5,6,6,7,7,8,8,9,9,10,10,11,11,12,12,13,13,14,14,15,15,17,17,18,18,19,19,20,20,21,21,22,22,23,23,24,24,25,25,26,26,27,27,28,28,29,29,30,30,31,31,32,32,33,33,34,34,35,35,36,36,37,37,38,38,39,39,40,40,41,41,42,42,44,44,45,45,46,46,47,47,48,48,50,50,51,51,52,52,53,53,54,54,55,55,56,56,57,57,58,58,60,60],"right_children":[2,4,6,8,10,12,14,16,18,20,22,24,26,28,30,32,-1,34,36,38,40,42,44,46,48,50,52,54,56,58,60,62,64,66,68,70,72,74,76,78,80,82,84,-1,86,88,90,92,94,-1,96,98,100,102,104,106,108,110,112,-1,114,-1,-1,-1,-1,-1,-1,-1,-1,-1,-1,-1,-1,-1,-1,-1,-1,-1,-1,-1,-1,-1,-1,-1,-1,-1,-1,-1,-1,-1,-1,-1,-1,-1,-1,-1,-1,-1,-1,-1,-1,-1,-1,-1,-1,-1,-1,-1,-1,-1,-1,-1,-1,-1,-1],"split_conditions":[2.359E3,2.154E3,2.512E3,2.012E3,2.266E3,2.429E3,2.748E3,2.022E3,2.016E3,-2.7813833E-2,2.4791113E-1,-1.8527097E-1,2.396E3,2.635E3,2.775E3,1.98E3,-3.2521365E0,2.022E3,2.019E3,2.9583E1,-2.7752081E-2,2.312E3,2.314E3,1.483342E2,-1.7006803E-1,2.45E3,2.412E3,1.7922753E-2,7.42124E1,1.483342E2,3.53424E1,6.546339E-2,-1.4441128E-1,2.015E3,2.745744E-2,1.12048E1,2.4791113E-1,1.82274E1,5.2572E1,2.158E3,7.18179E1,-9.254975E-2,2.298E3,-1.6226808E0,2.304E3,2.42911E1,-3.181643E-1,2.386E3,1.076564E2,4.02854E0,-4.8867586E-1,1.4519408E-1,2.421E3,-4.8867586E-1,3.518022E2,7.33007E1,2.613E3,2.74E3,1.992495E2,2.382129E0,3.5882E1,-2.069942E0,-7.04126E-1,-1.7393273E0,-1.178369E0,-1.0007982E0,-5.180332E-1,-1.4293946E-1,9.221375E-1,-1.8063424E0,-1.243042E0,-8.040909E-1,-2.0048742E0,-9.357924E-1,4.7570804E-1,-1.7782971E0,-7.1897465E-1,-2.88208E-1,1.3449464E0,-5.9308773E-1,-2.7144002E-3,-7.844854E-1,-2.8790483E-1,1.4228028E0,-1.7994049E-1,7.99292E-1,-1.1113404E0,-1.4093354E0,3.0147776E-1,-2.4532472E-1,-4.709082E0,1.7326466E1,-5.2399904E-1,7.687737E-2,-4.3806365E-1,7.89917E-2,-3.1893313E-1,-3.006348E0,-1.171875E-3,2.1215773E0,2.756147E-1,1.8267335E0,4.747364E-1,6.873228E-1,3.8405275E0,7.690321E-1,-1.3580079E0,-7.8021973E-1,1.01117E0,1.2127686E-1,1.2385039E0,-1.714437E-1,1.4960659E0,-3.8272706E-1,1.3586884E0],"split_indices":[2,1,3,3,1,2,2,1,3,0,0,0,1,2,2,3,0,2,3,4,0,1,2,4,0,2,1,0,4,4,4,0,0,1,0,4,0,4,4,2,4,0,3,0,1,4,0,1,4,0,0,0,1,0,4,4,3,3,4,0,4,0,0,0,0,0,0,0,0,0,0,0,0,0,0,0,0,0,0,0,0,0,0,0,0,0,0,0,0,0,0,0,0,0,0,0,0,0,0,0,0,0,0,0,0,0,0,0,0,0,0,0,0,0,0],"split_type":[0,0,0,0,0,0,0,0,0,0,0,0,0,0,0,0,0,0,0,0,0,0,0,0,0,0,0,0,0,0,0,0,0,0,0,0,0,0,0,0,0,0,0,0,0,0,0,0,0,0,0,0,0,0,0,0,0,0,0,0,0,0,0,0,0,0,0,0,0,0,0,0,0,0,0,0,0,0,0,0,0,0,0,0,0,0,0,0,0,0,0,0,0,0,0,0,0,0,0,0,0,0,0,0,0,0,0,0,0,0,0,0,0,0,0],"sum_hessian":[7.007E3,3.139E3,3.868E3,1.423E3,1.716E3,1.614E3,2.254E3,7.68E2,6.55E2,2.74E2,1.442E3,8.8E2,7.34E2,1.996E3,2.58E2,7.66E2,2E0,9.6E1,5.59E2,7.3E1,2.01E2,1.435E3,7E0,2.6E1,8.54E2,4E0,7.3E2,6.32E2,1.364E3,2.3E2,2.8E1,2E1,7.46E2,8.2E1,1.4E1,9E1,4.69E2,2.8E1,4.5E1,5E0,1.96E2,4.75E2,9.6E2,3E0,4E0,2.3E1,3E0,3E0,8.51E2,2E0,2E0,3E0,7.27E2,4E2,2.32E2,1.04E3,3.24E2,2.16E2,1.4E1,1.2E1,1.6E1,1.8E1,2E0,2.5E1,7.21E2,2.5E1,5.7E1,9E0,5E0,3.1E1,5.9E1,4.63E2,6E0,1.8E1,1E1,2.1E1,2.4E1,1E0,4E0,1.64E2,3.2E1,2.4E1,4.51E2,2E0,9.58E2,1E0,3E0,7E0,1.6E1,1E0,2E0,1E0,2E0,7.47E2,1.04E2,1E0,1E0,2E0,1E0,4E0,7.23E2,3E0,3.97E2,2.3E2,2E0,1.032E3,8E0,4E0,3.2E2,5E0,2.11E2,8E0,6E0,1E0,1.5E1],"tree_param":{"num_deleted":"0","num_feature":"5","num_nodes":"115","size_leaf_vector":"1"}},{"base_weights":[8.410031E-3,-1.2418566E0,1.4923431E0,-2.3865638E0,-3.971332E-1,7.2901726E-1,1.9648588E0,-2.7500083E0,-1.7262009E0,-3.6534923E-1,-7.289502E0,5.242981E0,6.9881994E-1,1.8543401E0,3.3923705E0,-3.370074E0,-2.560788E0,-3.9631715E0,-1.6427797E0,-3.9222237E-1,5.5080323E0,-1.170009E1,6.754212E-1,6.2464967E0,4.2933874E-2,1.6949143E-1,9.950813E-1,1.6110206E0,2.0783722E0,2.3855793E0,3.7406468E0,-4.7681937E0,-3.199913E0,-1.5608027E0,-2.6574109E0,-2.9234834E0,-7.3910522E0,-1.6904657E0,1.4485948E0,-6.202785E-1,1.42734E-1,7.8756104E0,-2.6415203E0,-5.1526613E0,-3.2996216E0,-1.5216432E0,5.147278E0,-9.073406E-1,6.558165E-1,9.5715916E-1,3.8269532E0,1.8549513E0,9.579244E-1,2.8841755E0,1.9244485E0,3.260175E0,-2.9680583E0,3.9240446E0,6.648995E-1,-1.4836854E0,-5.633057E-1,-9.728821E-1,-4.3374547E-1,-7.0059973E-1,-6.978542E-2,-1.1980325E0,-7.5882894E-1,-1.7405379E0,-2.4781828E-1,-4.4600832E-1,-2.659082E0,-3.252213E-1,-5.791703E-1,3.2484744E0,-3.2321778E-1,-1.7085433E-1,-5.8198375E-1,-5.2815016E-2,3.4600362E-1,3.2182376E0,-1.3598633E-1,-9.887696E-4,-1.1876954E0,-1.1495606E0,-2.5543213E-1,2.182544E0,-1.8544923E-1,-1.195699E-1,-2.009666E0,1.7758301E0,1.6429108E-1,3.001958E-1,-5.6533206E-1,-3.8670656E-1,2.7602198E0,5.0003076E-1,1.043315E0,-6.734082E-1,4.2072403E-1,-5.7168275E-1,9.3907374E-1,2.8989258E-1,6.401406E-1,5.5864745E-1,1.2437036E0,-1.3824463E-1,-1.0132031E0,1.0322716E0,1.6836256E0,1.6145508E0,-6.894727E-1],"categories":[],"categories_nodes":[],"categories_segments":[],"categories_sizes":[],"default_left":[0,0,0,0,0,0,0,0,0,0,0,0,0,0,0,0,0,0,0,0,0,0,0,0,0,0,0,0,0,0,0,0,0,0,0,0,0,0,0,0,0,0,0,0,0,0,0,0,0,0,0,0,0,0,0,0,0,0,0,0,0,0,0,0,0,0,0,0,0,0,0,0,0,0,0,0,0,0,0,0,0,0,0,0,0,0,0,0,0,0,0,0,0,0,0,0,0,0,0,0,0,0,0,0,0,0,0,0,0,0,0],"id":14,"left_children":[1,3,5,7,9,11,13,15,17,19,21,23,25,27,29,31,33,35,37,39,41,43,-1,-1,45,47,49,51,53,55,57,59,61,63,65,67,69,71,73,75,77,79,81,-1,83,-1,85,87,89,91,93,95,97,99,101,103,105,107,109,-1,-1,-1,-1,-1,-1,-1,-1,-1,-1,-1,-1,-1,-1,-1,-1,-1,-1,-1,-1,-1,-1,-1,-1,-1,-1,-1,-1,-1,-1,-1,-1,-1,-1,-1,-1,-1,-1,-1,-1,-1,-1,-1,-1,-1,-1,-1,-1,-1,-1,-1,-1],"loss_changes":[1.3003879E4,3.677372E3,1.1545576E3,3.8286133E2,4.7709305E2,1.6358795E2,3.0593018E2,1.1339209E2,1.0097717E2,3.464011E2,4.4715167E2,6.471847E2,1.911513E2,9.689746E1,4.0516846E1,4.1839355E1,7.324658E1,4.967093E1,8.455908E1,2.6507263E2,2.1375058E2,2.6530157E2,0E0,0E0,2.0887152E2,2.3049515E2,8.0316345E1,1.3937207E2,1.1277637E2,1.9228487E2,5.54917E1,3.0219727E0,1.1689209E1,7.455321E1,1.1454834E2,9.78369E1,2.1600464E1,7.78396E1,2.2490222E2,1.0092352E2,2.0961145E2,1.9488452E2,1.0414249E1,0E0,1.9495392E0,0E0,5.356964E1,4.0101282E2,1.6929134E2,9.742151E1,2.8678113E2,1.9086523E2,3.4906537E2,1.8393726E2,1.592124E2,3.437033E1,4.600731E0,5.9798462E1,1.1020742E2,0E0,0E0,0E0,0E0,0E0,0E0,0E0,0E0,0E0,0E0,0E0,0E0,0E0,0E0,0E0,0E0,0E0,0E0,0E0,0E0,0E0,0E0,0E0,0E0,0E0,0E0,0E0,0E0,0E0,0E0,0E0,0E0,0E0,0E0,0E0,0E0,0E0,0E0,0E0,0E0,0E0,0E0,0E0,0E0,0E0,0E0,0E0,0E0,0E0,0E0,0E0,0E0],"parents":[2147483647,0,0,1,1,2,2,3,3,4,4,5,5,6,6,7,7,8,8,9,9,10,10,11,11,12,12,13,13,14,14,15,15,16,16,17,17,18,18,19,19,20,20,21,21,24,24,25,25,26,26,27,27,28,28,29,29,30,30,31,31,32,32,33,33,34,34,35,35,36,36,37,37,38,38,39,39,40,40,41,41,42,42,44,44,46,46,47,47,48,48,49,49,50,50,51,51,52,52,53,53,54,54,55,55,56,56,57,57,58,58],"right_children":[2,4,6,8,10,12,14,16,18,20,22,24,26,28,30,32,34,36,38,40,42,44,-1,-1,46,48,50,52,54,56,58,60,62,64,66,68,70,72,74,76,78,80,82,-1,84,-1,86,88,90,92,94,96,98,100,102,104,106,108,110,-1,-1,-1,-1,-1,-1,-1,-1,-1,-1,-1,-1,-1,-1,-1,-1,-1,-1,-1,-1,-1,-1,-1,-1,-1,-1,-1,-1,-1,-1,-1,-1,-1,-1,-1,-1,-1,-1,-1,-1,-1,-1,-1,-1,-1,-1,-1,-1,-1,-1,-1,-1],"split_conditions":[2.397E3,2.215E3,2.586E3,2.025E3,2.41E3,-4.8867586E-1,2.758E3,2.004E3,-1.525074E-1,2.415E3,2.388E3,2.41E3,-9.17768E-3,2.651E3,-3.68392E-2,1.987E3,2.001E3,2.174E3,3.041683E2,4.16514E1,5.674832E-2,3.518022E2,6.754212E-1,6.2464967E0,2.441E3,2.45E3,3.518022E2,2.64E3,2.655E3,-4.596433E-2,1.483342E2,6.546339E-2,1.43058E2,2E3,2.005E3,2.133E3,-3.181643E-1,-1.8387424E-2,2.029E3,2.399E3,2.382E3,2.45E3,1.619819E-1,-5.1526613E0,3.6896966E-2,-1.5216432E0,2.562E3,1.483342E2,2.436E3,2.711043E2,2.45E3,2.637E3,2.648E3,-1.8527097E-1,2.666E3,2.757E3,2.76E3,6.7866E1,3.6971994E-2,-1.4836854E0,-5.633057E-1,-9.728821E-1,-4.3374547E-1,-7.0059973E-1,-6.978542E-2,-1.1980325E0,-7.5882894E-1,-1.7405379E0,-2.4781828E-1,-4.4600832E-1,-2.659082E0,-3.252213E-1,-5.791703E-1,3.2484744E0,-3.2321778E-1,-1.7085433E-1,-5.8198375E-1,-5.2815016E-2,3.4600362E-1,3.2182376E0,-1.3598633E-1,-9.887696E-4,-1.1876954E0,-1.1495606E0,-2.5543213E-1,2.182544E0,-1.8544923E-1,-1.195699E-1,-2.009666E0,1.7758301E0,1.6429108E-1,3.001958E-1,-5.6533206E-1,-3.8670656E-1,2.7602198E0,5.0003076E-1,1.043315E0,-6.734082E-1,4.2072403E-1,-5.7168275E-1,9.3907374E-1,2.8989258E-1,6.401406E-1,5.5864745E-1,1.2437036E0,-1.3824463E-1,-1.0132031E0,1.0322716E0,1.6836256E0,1.6145508E0,-6.894727E-1],"split_indices":[3,2,3,3,1,0,2,2,0,2,3,3,0,3,0,2,3,2,4,4,0,4,0,0,3,2,4,3,3,0,4,0,4,3,1,1,0,0,1,2,1,2,0,0,0,0,1,4,3,4,1,3,2,0,2,3,1,4,0,0,0,0,0,0,0,0,0,0,0,0,0,0,0,0,0,0,0,0,0,0,0,0,0,0,0,0,0,0,0,0,0,0,0,0,0,0,0,0,0,0,0,0,0,0,0,0,0,0,0,0,0],"split_type":[0,0,0,0,0,0,0,0,0,0,0,0,0,0,0,0,0,0,0,0,0,0,0,0,0,0,0,0,0,0,0,0,0,0,0,0,0,0,0,0,0,0,0,0,0,0,0,0,0,0,0,0,0,0,0,0,0,0,0,0,0,0,0,0,0,0,0,0,0,0,0,0,0,0,0,0,0,0,0,0,0,0,0,0,0,0,0,0,0,0,0,0,0,0,0,0,0,0,0,0,0,0,0,0,0,0,0,0,0,0,0],"sum_hessian":[7.007E3,3.803E3,3.204E3,1.614E3,2.189E3,1.226E3,1.978E3,1.039E3,5.75E2,2.18E3,9E0,7E0,1.219E3,1.838E3,1.4E2,2.39E2,8E2,1.9E1,5.56E2,2.171E3,9E0,6E0,3E0,1E0,6E0,4.38E2,7.81E2,8.85E2,9.53E2,3.8E1,1.02E2,2.3E1,2.16E2,7.2E1,7.28E2,1.6E1,3E0,5.48E2,8E0,1.522E3,6.49E2,7E0,2E0,3E0,3E0,3E0,3E0,1.36E2,3.02E2,7.72E2,9E0,6.43E2,2.42E2,1.5E2,8.03E2,3.3E1,5E0,9.6E1,6E0,2.1E1,2E0,2.1E2,6E0,4.5E1,2.7E1,6.1E1,6.67E2,6E0,1E1,1E0,2E0,1.57E2,3.91E2,1E0,7E0,1.467E3,5.5E1,4.94E2,1.55E2,5E0,2E0,1E0,1E0,2E0,1E0,2E0,1E0,1.26E2,1E1,5E0,2.97E2,7.61E2,1.1E1,5E0,4E0,5.78E2,6.5E1,2.9E1,2.13E2,7E0,1.43E2,1.45E2,6.58E2,1.4E1,1.9E1,1E0,4E0,7.7E1,1.9E1,2E0,4E0],"tree_param":{"num_deleted":"0","num_feature":"5","num_nodes":"111","size_leaf_vector":"1"}},{"base_weights":[6.1452333E-3,-1.1231741E0,8.3414364E-1,-1.8259475E0,-5.635085E-1,1.3904977E-1,1.2638279E0,-1.8098103E0,-2.4823976E0,-5.838521E-1,3.690094E0,1.3785352E0,7.5802185E-2,1.1194252E0,1.8815923E0,-2.067673E0,-1.4746704E0,-5.6062233E-1,-4.744222E0,2.0694032E0,3.857422E-1,-1.4636446E0,3.6465251E0,-1.0418329E0,1.9405349E-1,1.1594044E0,-3.635073E-1,4.1832113E0,1.721479E0,-1.9508955E0,-2.6203206E0,-6.152237E-1,-1.7125671E0,-8.8610804E-1,-3.4701088E-1,-2.1657716E-1,-5.156769E0,1.5113525E0,-6.175049E-1,-1.3830173E-1,-3.4107423E0,1.1708646E0,1.5857561E1,-1.2604556E0,2.0283327E0,3.7153015E0,1.7264667E-1,1.1031992E0,2.1114738E0,4.1438177E-2,-2.178418E0,2.34375E-1,5.3748407E0,-8.170048E-1,1.9078509E0,-6.338295E-1,-2.4838467E-1,-8.512195E-1,5.4455567E-2,-1.288733E-1,-1.1129518E0,-7.7297086E-1,-4.253326E-1,2.097523E-1,-2.9087862E-1,-4.0518337E-1,-8.5275024E-2,-1.6865792E0,-2.850952E-1,8.679932E-1,-3.9517823E-1,1.9339479E0,-4.9576512E-1,-3.8405064E-2,5.731743E-1,1.4675611E1,6.5827644E-1,-2.8869295E-1,-2.0107703E0,1.7162738E0,-1.5485963E0,6.0100697E-2,-6.3155365E-1,3.433841E-1,-1.0929989E-1,9.57176E-1,2.859877E-1,-4.3119445E-1,5.479615E-1,-1.0161134E-1,1.4455567E-1,-2.7886963E-1,1.7110974E0,-1.2649804E0,-4.715712E-2,5.396808E-1,9.8640054E-1],"categories":[],"categories_nodes":[],"categories_segments":[],"categories_sizes":[],"default_left":[0,0,0,0,0,0,0,0,0,0,0,0,0,0,0,0,0,0,0,0,0,0,0,0,0,0,0,0,0,0,0,0,0,0,0,0,0,0,0,0,0,0,0,0,0,0,0,0,0,0,0,0,0,0,0,0,0,0,0,0,0,0,0,0,0,0,0,0,0,0,0,0,0,0,0,0,0,0,0,0,0,0,0,0,0,0,0,0,0,0,0,0,0,0,0,0,0],"id":15,"left_children":[1,3,5,7,9,11,13,15,-1,17,19,21,23,25,27,29,31,33,35,-1,37,39,41,43,45,47,49,51,53,55,57,59,61,63,65,-1,67,69,-1,71,-1,73,75,77,-1,79,81,83,85,87,-1,89,91,93,95,-1,-1,-1,-1,-1,-1,-1,-1,-1,-1,-1,-1,-1,-1,-1,-1,-1,-1,-1,-1,-1,-1,-1,-1,-1,-1,-1,-1,-1,-1,-1,-1,-1,-1,-1,-1,-1,-1,-1,-1,-1,-1],"loss_changes":[6.5539395E3,1.1651592E3,1.2076492E3,1.2176514E2,1.4510834E2,1.2109335E2,2.2082202E2,1.10333496E2,0E0,1.5632056E2,8.2139824E1,4.8878983E2,1.9474435E2,1.2065405E2,1.6673999E2,4.2580566E1,1.1630615E2,1.1350903E2,1.121167E1,0E0,1.6866367E1,4.447857E2,1.2511089E3,2.4905397E2,9.976303E1,1.0335547E2,1.5113736E2,1.3990674E2,2.111427E2,1.0985791E2,7.715027E1,7.079374E1,1.1070764E2,8.644141E1,6.1972984E1,0E0,1.0310852E1,1.9447346E1,0E0,3.197546E2,0E0,3.483352E1,3.0547314E3,2.1746092E2,0E0,1.7196638E2,8.399037E1,1.1388745E2,1.3318756E2,1.3989084E2,0E0,1.2977983E0,5.2980835E1,6.887338E1,5.616687E1,0E0,0E0,0E0,0E0,0E0,0E0,0E0,0E0,0E0,0E0,0E0,0E0,0E0,0E0,0E0,0E0,0E0,0E0,0E0,0E0,0E0,0E0,0E0,0E0,0E0,0E0,0E0,0E0,0E0,0E0,0E0,0E0,0E0,0E0,0E0,0E0,0E0,0E0,0E0,0E0,0E0,0E0],"parents":[2147483647,0,0,1,1,2,2,3,3,4,4,5,5,6,6,7,7,9,9,10,10,11,11,12,12,13,13,14,14,15,15,16,16,17,17,18,18,20,20,21,21,22,22,23,23,24,24,25,25,26,26,27,27,28,28,29,29,30,30,31,31,32,32,33,33,34,34,36,36,37,37,39,39,41,41,42,42,43,43,45,45,46,46,47,47,48,48,49,49,51,51,52,52,53,53,54,54],"right_children":[2,4,6,8,10,12,14,16,-1,18,20,22,24,26,28,30,32,34,36,-1,38,40,42,44,46,48,50,52,54,56,58,60,62,64,66,-1,68,70,-1,72,-1,74,76,78,-1,80,82,84,86,88,-1,90,92,94,96,-1,-1,-1,-1,-1,-1,-1,-1,-1,-1,-1,-1,-1,-1,-1,-1,-1,-1,-1,-1,-1,-1,-1,-1,-1,-1,-1,-1,-1,-1,-1,-1,-1,-1,-1,-1,-1,-1,-1,-1,-1,-1],"split_conditions":[2.342E3,2.135E3,2.505E3,3.9609432E-1,2.354E3,-1.12180986E-1,2.685E3,2.014E3,-2.4823976E0,2.349E3,-3.7257824E-2,-1.8527097E-1,-4.796163E-2,2.683E3,2.694E3,2.013E3,2.016E3,2.3E3,-1.5925059E-1,2.0694032E0,2.366E3,1.992495E2,1.221937E2,2.250308E2,-4.6554934E-2,2.676E3,2.9097053E-1,4.91156E1,2.704E3,2.011E3,1.328672E2,1.545869E2,2.02E3,2.149E3,4.0836E0,-2.1657716E-1,2.353E3,2.341E3,-6.175049E-1,-4.8867586E-1,-3.4107423E0,-1.4441128E-1,-1.7006803E-1,1.625976E2,2.0283327E0,1.545869E2,2.499E3,2.665E3,8.961377E-3,2.682E3,-2.178418E0,2.691E3,-3.181643E-1,-1.1899313E-1,2.775E3,-6.338295E-1,-2.4838467E-1,-8.512195E-1,5.4455567E-2,-1.288733E-1,-1.1129518E0,-7.7297086E-1,-4.253326E-1,2.097523E-1,-2.9087862E-1,-4.0518337E-1,-8.5275024E-2,-1.6865792E0,-2.850952E-1,8.679932E-1,-3.9517823E-1,1.9339479E0,-4.9576512E-1,-3.8405064E-2,5.731743E-1,1.4675611E1,6.5827644E-1,-2.8869295E-1,-2.0107703E0,1.7162738E0,-1.5485963E0,6.0100697E-2,-6.3155365E-1,3.433841E-1,-1.0929989E-1,9.57176E-1,2.859877E-1,-4.3119445E-1,5.479615E-1,-1.0161134E-1,1.4455567E-1,-2.7886963E-1,1.7110974E0,-1.2649804E0,-4.715712E-2,5.396808E-1,9.8640054E-1],"split_indices":[3,3,2,0,1,0,3,1,0,1,0,0,0,1,3,2,3,3,0,0,1,4,4,4,0,2,0,4,3,2,4,4,3,2,4,0,1,3,0,0,0,0,0,4,0,4,3,3,0,3,0,1,0,0,2,0,0,0,0,0,0,0,0,0,0,0,0,0,0,0,0,0,0,0,0,0,0,0,0,0,0,0,0,0,0,0,0,0,0,0,0,0,0,0,0,0,0],"split_type":[0,0,0,0,0,0,0,0,0,0,0,0,0,0,0,0,0,0,0,0,0,0,0,0,0,0,0,0,0,0,0,0,0,0,0,0,0,0,0,0,0,0,0,0,0,0,0,0,0,0,0,0,0,0,0,0,0,0,0,0,0,0,0,0,0,0,0,0,0,0,0,0,0,0,0,0,0,0,0,0,0,0,0,0,0,0,0,0,0,0,0,0,0,0,0,0,0],"sum_hessian":[7.007E3,2.964E3,4.043E3,1.313E3,1.651E3,1.545E3,2.498E3,1.311E3,2E0,1.644E3,7E0,7.4E1,1.471E3,2.027E3,4.71E2,7.38E2,5.73E2,1.636E3,8E0,3E0,4E0,3.3E1,4.1E1,1.4E2,1.331E3,1.974E3,5.3E1,2.9E1,4.42E2,6.13E2,1.25E2,1.25E2,4.48E2,6.47E2,9.89E2,1E0,7E0,3E0,1E0,3E1,3E0,3.5E1,6E0,1.37E2,3E0,7E0,1.324E3,1.866E3,1.08E2,5.1E1,2E0,7E0,2.2E1,3E1,4.12E2,5.35E2,7.8E1,1.16E2,9E0,1.19E2,6E0,1.12E2,3.36E2,3.2E1,6.15E2,5.7E1,9.32E2,6E0,1E0,2E0,1E0,5E0,2.5E1,1.3E1,2.2E1,1E0,5E0,1.31E2,6E0,6E0,1E0,1.309E3,1.5E1,1.815E3,5.1E1,5.5E1,5.3E1,2.8E1,2.3E1,2E0,5E0,1E0,2.1E1,4E0,2.6E1,3.84E2,2.8E1],"tree_param":{"num_deleted":"0","num_feature":"5","num_nodes":"97","size_leaf_vector":"1"}},{"base_weights":[5.230577E-3,-6.324435E-1,7.461661E-1,-1.2191355E0,-2.2974496E-1,3.7994277E-1,1.014318E0,-1.9315262E0,-1.1259103E0,-2.0473802E-1,-5.7733154E0,3.580295E0,3.5854754E-1,9.5393956E-1,1.7427721E0,-1.8386673E0,-2.0020509E0,-1.5938172E0,-8.983898E-1,-2.2578485E-1,5.658722E0,-9.218855E0,5.0991213E-1,1.1008057E1,-1.1450195E-1,6.181296E-2,5.779917E-1,5.937207E0,9.3895096E-1,1.8198506E0,-1.3713989E0,-2.8234959E0,-1.5520822E0,-2.905012E0,-1.5249546E0,-8.642924E-1,-3.901184E0,-2.095853E-1,-5.3149066E0,1.838501E0,3.423877E0,-4.006842E0,-2.7768555E0,-6.580811E-2,5.019434E0,-1.0603418E0,5.6236167E0,-1.4154053E0,9.478443E-2,5.4030365E-1,3.7633193E0,7.7075195E-1,2.737378E0,9.4619066E-1,-3.5344238E0,1.1242859E0,1.6892294E0,-1.9089356E-1,-5.36499E-1,-4.138916E-1,-9.4876105E-1,-8.139216E-1,-3.603646E-1,-9.7420293E-1,-3.4802493E-1,-3.9446288E-1,-5.5461216E-1,-2.6897272E-1,3.7768906E-1,-2.109778E0,-8.315552E-1,-1.0710723E-1,4.2043023E-2,-2.7304688E0,-5.939795E-1,9.8521733E-1,-2.1052246E-1,-9.599854E-1,-2.2613527E-1,2.7397707E0,-2.0914307E-1,2.8318447E-1,-2.609894E-2,1.8730828E-1,-2.8306887E-1,-3.0504152E-1,2.9978027E0,-1.010376E-1,4.47876E-1,-5.237549E-1,2.8745478E-1,-1.7252564E0,1.3476562E-1,1.2198154E-2,6.0022634E-1],"categories":[],"categories_nodes":[],"categories_segments":[],"categories_sizes":[],"default_left":[0,0,0,0,0,0,0,0,0,0,0,0,0,0,0,0,0,0,0,0,0,0,0,0,0,0,0,0,0,0,0,0,0,0,0,0,0,0,0,0,0,0,0,0,0,0,0,0,0,0,0,0,0,0,0,0,0,0,0,0,0,0,0,0,0,0,0,0,0,0,0,0,0,0,0,0,0,0,0,0,0,0,0,0,0,0,0,0,0,0,0,0,0,0,0],"id":16,"left_children":[1,3,5,7,9,11,13,15,17,19,21,23,25,27,29,31,-1,33,35,37,39,41,-1,43,45,47,49,51,53,55,57,59,61,63,65,67,69,71,73,75,-1,-1,77,-1,-1,-1,79,-1,81,83,85,87,-1,89,91,-1,93,-1,-1,-1,-1,-1,-1,-1,-1,-1,-1,-1,-1,-1,-1,-1,-1,-1,-1,-1,-1,-1,-1,-1,-1,-1,-1,-1,-1,-1,-1,-1,-1,-1,-1,-1,-1,-1,-1],"loss_changes":[3.3115796E3,8.897114E2,3.1799023E2,9.963599E1,3.08651E2,9.2660324E1,8.062964E1,6.522864E1,1.4313855E2,2.759823E2,2.7315533E2,2.4825711E2,8.87834E1,1.236427E2,3.658081E1,4.472693E1,0E0,3.5569458E1,9.041522E1,1.818239E2,1.5487589E2,1.4947858E2,0E0,1.9644681E2,1.572459E2,9.201165E1,9.208499E1,7.530464E1,5.924182E1,2.8670685E1,8.7986946E-2,1.4238831E1,5.254837E1,8.777023E0,2.6338867E1,6.3299744E1,1.5870758E1,1.14160225E2,7.037834E1,2.4336946E1,0E0,0E0,1.0117397E0,0E0,0E0,0E0,7.290444E1,0E0,8.9303215E1,9.7379425E1,2.7815448E2,2.9023018E0,0E0,5.7328247E1,2.9071793E1,0E0,6.770996E1,0E0,0E0,0E0,0E0,0E0,0E0,0E0,0E0,0E0,0E0,0E0,0E0,0E0,0E0,0E0,0E0,0E0,0E0,0E0,0E0,0E0,0E0,0E0,0E0,0E0,0E0,0E0,0E0,0E0,0E0,0E0,0E0,0E0,0E0,0E0,0E0,0E0,0E0],"parents":[2147483647,0,0,1,1,2,2,3,3,4,4,5,5,6,6,7,7,8,8,9,9,10,10,11,11,12,12,13,13,14,14,15,15,17,17,18,18,19,19,20,20,21,21,23,23,24,24,25,25,26,26,27,27,28,28,29,29,30,30,31,31,32,32,33,33,34,34,35,35,36,36,37,37,38,38,39,39,42,42,46,46,48,48,49,49,50,50,51,51,53,53,54,54,56,56],"right_children":[2,4,6,8,10,12,14,16,18,20,22,24,26,28,30,32,-1,34,36,38,40,42,-1,44,46,48,50,52,54,56,58,60,62,64,66,68,70,72,74,76,-1,-1,78,-1,-1,-1,80,-1,82,84,86,88,-1,90,92,-1,94,-1,-1,-1,-1,-1,-1,-1,-1,-1,-1,-1,-1,-1,-1,-1,-1,-1,-1,-1,-1,-1,-1,-1,-1,-1,-1,-1,-1,-1,-1,-1,-1,-1,-1,-1,-1,-1,-1],"split_conditions":[2.395E3,2.165E3,2.624E3,-7.386206E-2,2.41E3,-4.8867586E-1,2.758E3,2.17E3,2.008E3,2.415E3,2.388E3,2.41E3,-8.954956E-3,2.606E3,3.041683E2,1.51192E1,-2.0020509E0,1.98E3,2.9097053E-1,2.41E3,9.196248E-3,3.518022E2,5.0991213E-1,2.398E3,2.517E3,2.401E3,3.518022E2,-4.7205437E-2,2.757E3,7.7001E0,6.480282E-2,2.001E3,-1.7006803E-1,1.987E3,2.001E3,2.711043E2,2.012E3,4.16514E1,1.8479165E-2,2.446E3,3.423877E0,-4.006842E0,3.6896966E-2,-6.580811E-2,5.019434E0,-1.0603418E0,2.562E3,-1.4154053E0,-9.254975E-2,1.705134E2,2.45E3,-2.3056349E-1,2.737378E0,-4.8867586E-1,-5.5565845E-2,1.1242859E0,1.94742E1,-1.9089356E-1,-5.36499E-1,-4.138916E-1,-9.4876105E-1,-8.139216E-1,-3.603646E-1,-9.7420293E-1,-3.4802493E-1,-3.9446288E-1,-5.5461216E-1,-2.6897272E-1,3.7768906E-1,-2.109778E0,-8.315552E-1,-1.0710723E-1,4.2043023E-2,-2.7304688E0,-5.939795E-1,9.8521733E-1,-2.1052246E-1,-9.599854E-1,-2.2613527E-1,2.7397707E0,-2.0914307E-1,2.8318447E-1,-2.609894E-2,1.8730828E-1,-2.8306887E-1,-3.0504152E-1,2.9978027E0,-1.010376E-1,4.47876E-1,-5.237549E-1,2.8745478E-1,-1.7252564E0,1.3476562E-1,1.2198154E-2,6.0022634E-1],"split_indices":[3,3,2,0,1,0,2,1,1,2,3,3,0,3,4,4,0,3,0,2,0,4,0,1,1,2,4,0,1,4,0,3,0,2,3,4,3,4,0,2,0,0,0,0,0,0,1,0,0,4,1,0,0,0,0,0,4,0,0,0,0,0,0,0,0,0,0,0,0,0,0,0,0,0,0,0,0,0,0,0,0,0,0,0,0,0,0,0,0,0,0,0,0,0,0],"split_type":[0,0,0,0,0,0,0,0,0,0,0,0,0,0,0,0,0,0,0,0,0,0,0,0,0,0,0,0,0,0,0,0,0,0,0,0,0,0,0,0,0,0,0,0,0,0,0,0,0,0,0,0,0,0,0,0,0,0,0,0,0,0,0,0,0,0,0,0,0,0,0,0,0,0,0,0,0,0,0,0,0,0,0,0,0,0,0,0,0,0,0,0,0,0,0],"sum_hessian":[7.007E3,3.766E3,3.241E3,1.532E3,2.234E3,1.371E3,1.87E3,1.75E2,1.357E3,2.225E3,9E0,8E0,1.363E3,1.729E3,1.41E2,1.73E2,2E0,4.42E2,9.15E2,2.218E3,7E0,6E0,3E0,2E0,6E0,5.8E2,7.83E2,4E0,1.725E3,1.38E2,3E0,3.7E1,1.36E2,2E1,4.22E2,9.06E2,9E0,2.212E3,6E0,5E0,2E0,3E0,3E0,1E0,1E0,4E0,2E0,3E0,5.77E2,7.75E2,8E0,2E0,2E0,1.723E3,2E0,7E0,1.31E2,2E0,1E0,8E0,2.9E1,3E1,1.06E2,1.6E1,4E0,2.59E2,1.63E2,8.93E2,1.3E1,1E0,8E0,1.556E3,6.56E2,2E0,4E0,3E0,2E0,2E0,1E0,1E0,1E0,1.01E2,4.76E2,7.34E2,4.1E1,5E0,3E0,1E0,1E0,7E0,1.716E3,1E0,1E0,2.1E1,1.1E2],"tree_param":{"num_deleted":"0","num_feature":"5","num_nodes":"95","size_leaf_vector":"1"}},{"base_weights":[3.2241333E-3,-6.166055E-1,3.993867E-1,-9.6034676E-1,-3.6628157E-1,5.5560067E-2,6.249432E-1,-9.0460384E-1,-3.085828E0,-4.833019E-1,2.0713109E-1,-6.2006377E-2,6.524636E-1,4.800207E-1,8.70522E-1,-9.682274E-1,1.2262406E0,1.9368489E-1,-4.3443894E0,-3.9128917E-1,-1.2589542E0,9.338102E-2,5.1776123E0,-1.650953E-2,-3.2391357E0,2.5495954E0,1.752679E-1,4.9992952E-1,-2.0286584E0,2.4951234E0,8.383871E-1,-9.23923E-1,-2.6477845E0,-3.3867402E0,5.76709E0,-1.8373413E0,1.5154215E0,-1.4604003E0,-6.385681E0,1.2387945E-2,-5.905821E-1,-1.4097883E0,4.184143E0,1.0943875E0,-2.8053528E-1,5.3881836E-1,2.2086916E0,-1.0858536E-1,8.3869845E-1,-1.8956473E0,-5.463379E0,9.068146E-1,4.550371E0,3.4324749E0,-2.145243E-1,5.1799834E-1,-1.955424E0,-2.7252753E0,3.605469E-1,-6.178955E0,8.6702114E-1,-2.9050753E-1,3.8074452E-1,-2.8462914E-1,-2.0202081E0,-1.0979004E0,1.9754975E0,1.4066163E-1,-8.28711E-1,9.6099246E-1,-3.720703E-1,-9.2747504E-1,1.0128663E0,-4.6761966E0,-8.959864E-1,-7.761069E-2,2.7566895E-1,-1.0920228E0,-1.6281767E-1,-3.558577E-1,-1.4517151E0,-1.6329347E-1,1.7825197E0,5.8867987E-2,7.035816E-1,-4.896318E-2,-1.1729859E0,-2.0321046E-1,4.4567874E-1,-8.9380955E-3,-5.3253883E-1,4.226323E-1,-4.2314366E-1,-1.1869793E0,4.5351565E-1,-1.8910401E0,-6.342774E-2,1.0024083E0,-2.8043664E-1,2.1227051E-1,1.574592E0,-3.7394875E-1,3.8838685E0,-5.8629066E-1,1.3627712E-1,4.649401E-2,1.8478958E-1,4.0214846E-1,-8.245972E-1,-3.6621094E-2,-9.870606E-1,-3.6736817E0,-2.2460938E-2,1.5235292E0,2.545011E-1],"categories":[],"categories_nodes":[],"categories_segments":[],"categories_sizes":[],"default_left":[0,0,0,0,0,0,0,0,0,0,0,0,0,0,0,0,0,0,0,0,0,0,0,0,0,0,0,0,0,0,0,0,0,0,0,0,0,0,0,0,0,0,0,0,0,0,0,0,0,0,0,0,0,0,0,0,0,0,0,0,0,0,0,0,0,0,0,0,0,0,0,0,0,0,0,0,0,0,0,0,0,0,0,0,0,0,0,0,0,0,0,0,0,0,0,0,0,0,0,0,0,0,0,0,0,0,0,0,0,0,0,0,0,0,0],"id":17,"left_children":[1,3,5,7,9,11,13,15,17,19,21,23,25,27,29,31,33,35,37,39,41,43,45,47,49,51,53,55,57,-1,59,61,-1,63,65,67,69,71,73,75,77,79,81,83,85,87,-1,89,91,93,95,97,99,101,103,105,107,109,-1,111,113,-1,-1,-1,-1,-1,-1,-1,-1,-1,-1,-1,-1,-1,-1,-1,-1,-1,-1,-1,-1,-1,-1,-1,-1,-1,-1,-1,-1,-1,-1,-1,-1,-1,-1,-1,-1,-1,-1,-1,-1,-1,-1,-1,-1,-1,-1,-1,-1,-1,-1,-1,-1,-1,-1],"loss_changes":[1.7210839E3,2.3481384E2,3.3157904E2,1.3357959E2,1.0632089E2,1.1898849E2,9.147516E1,1.5343451E2,1.20538025E2,9.3358765E1,1.5160712E2,2.0477298E2,2.521327E2,8.222443E1,2.2203217E2,3.7165692E2,7.107778E2,2.6944683E1,1.1430267E2,9.4696945E1,1.2001839E2,9.912027E1,5.6839066E1,1.1017516E2,4.940825E1,1.799365E2,2.8513434E2,7.261856E1,3.2530598E1,0E0,1.970492E2,1.0705963E2,0E0,1.3234126E2,1.5517157E2,9.828449E0,3.188026E1,8.9332E1,3.2876968E2,9.60785E1,1.1302368E2,9.854059E1,3.6476868E1,8.043147E1,8.1545166E1,4.4606686E0,0E0,1.6579146E2,1.7636646E2,1.0429501E2,2.9552002E1,1.4659445E2,6.3368896E1,1.084487E3,2.3475749E2,5.691327E1,3.5057743E1,1.5775185E1,0E0,1.4720857E2,7.052307E1,0E0,0E0,0E0,0E0,0E0,0E0,0E0,0E0,0E0,0E0,0E0,0E0,0E0,0E0,0E0,0E0,0E0,0E0,0E0,0E0,0E0,0E0,0E0,0E0,0E0,0E0,0E0,0E0,0E0,0E0,0E0,0E0,0E0,0E0,0E0,0E0,0E0,0E0,0E0,0E0,0E0,0E0,0E0,0E0,0E0,0E0,0E0,0E0,0E0,0E0,0E0,0E0,0E0,0E0],"parents":[2147483647,0,0,1,1,2,2,3,3,4,4,5,5,6,6,7,7,8,8,9,9,10,10,11,11,12,12,13,13,14,14,15,15,16,16,17,17,18,18,19,19,20,20,21,21,22,22,23,23,24,24,25,25,26,26,27,27,28,28,30,30,31,31,33,33,34,34,35,35,36,36,37,37,38,38,39,39,40,40,41,41,42,42,43,43,44,44,45,45,47,47,48,48,49,49,50,50,51,51,52,52,53,53,54,54,55,55,56,56,57,57,59,59,60,60],"right_children":[2,4,6,8,10,12,14,16,18,20,22,24,26,28,30,32,34,36,38,40,42,44,46,48,50,52,54,56,58,-1,60,62,-1,64,66,68,70,72,74,76,78,80,82,84,86,88,-1,90,92,94,96,98,100,102,104,106,108,110,-1,112,114,-1,-1,-1,-1,-1,-1,-1,-1,-1,-1,-1,-1,-1,-1,-1,-1,-1,-1,-1,-1,-1,-1,-1,-1,-1,-1,-1,-1,-1,-1,-1,-1,-1,-1,-1,-1,-1,-1,-1,-1,-1,-1,-1,-1,-1,-1,-1,-1,-1,-1,-1,-1,-1,-1],"split_conditions":[2.334E3,2.101E3,2.498E3,2.062E3,3.7126414E-2,8.00005E1,2.662E3,2.035E3,6.62052E1,8.68316E1,2.339E3,7.53602E1,9.1114E1,2.66E3,2.653E3,2.038E3,2.648E1,-9.225943E-3,9.212345E-3,-1.8387424E-2,2.372E3,5.521303E-2,6.546339E-2,5.674832E-2,2.407E3,8.52008E1,-1.4441128E-1,2.9097053E-1,3.04125E1,2.4951234E0,2.647E3,2.037E3,-2.6477845E0,2.038E3,-1.0954902E-1,2.31037E1,3.6896966E-2,-3.675457E-2,8.25409E1,4.59502E1,-9.365049E-3,2.347E3,-3.181643E-1,4.6193644E-2,2.342E3,5.580876E-2,2.2086916E0,6.30343E1,1.5249372E-1,7.76173E1,2.486E3,-1.8691588E-2,2.363E3,-1.8527097E-1,2.376E3,-3.838403E-2,3.36602E1,1.84387E1,3.605469E-1,-6.668572E-2,2.649E3,-2.9050753E-1,3.8074452E-1,-2.8462914E-1,-2.0202081E0,-1.0979004E0,1.9754975E0,1.4066163E-1,-8.28711E-1,9.6099246E-1,-3.720703E-1,-9.2747504E-1,1.0128663E0,-4.6761966E0,-8.959864E-1,-7.761069E-2,2.7566895E-1,-1.0920228E0,-1.6281767E-1,-3.558577E-1,-1.4517151E0,-1.6329347E-1,1.7825197E0,5.8867987E-2,7.035816E-1,-4.896318E-2,-1.1729859E0,-2.0321046E-1,4.4567874E-1,-8.9380955E-3,-5.3253883E-1,4.226323E-1,-4.2314366E-1,-1.1869793E0,4.5351565E-1,-1.8910401E0,-6.342774E-2,1.0024083E0,-2.8043664E-1,2.1227051E-1,1.574592E0,-3.7394875E-1,3.8838685E0,-5.8629066E-1,1.3627712E-1,4.649401E-2,1.8478958E-1,4.0214846E-1,-8.245972E-1,-3.6621094E-2,-9.870606E-1,-3.6736817E0,-2.2460938E-2,1.5235292E0,2.545011E-1],"split_indices":[3,1,1,3,0,4,2,3,4,4,1,4,4,1,1,1,4,0,0,0,2,0,0,0,1,4,0,0,4,0,3,2,0,1,0,4,0,0,4,4,0,2,0,0,2,0,0,4,0,4,3,0,2,0,3,0,4,4,0,0,3,0,0,0,0,0,0,0,0,0,0,0,0,0,0,0,0,0,0,0,0,0,0,0,0,0,0,0,0,0,0,0,0,0,0,0,0,0,0,0,0,0,0,0,0,0,0,0,0,0,0,0,0,0,0],"split_type":[0,0,0,0,0,0,0,0,0,0,0,0,0,0,0,0,0,0,0,0,0,0,0,0,0,0,0,0,0,0,0,0,0,0,0,0,0,0,0,0,0,0,0,0,0,0,0,0,0,0,0,0,0,0,0,0,0,0,0,0,0,0,0,0,0,0,0,0,0,0,0,0,0,0,0,0,0,0,0,0,0,0,0,0,0,0,0,0,0,0,0,0,0,0,0,0,0,0,0,0,0,0,0,0,0,0,0,0,0,0,0,0,0,0,0],"sum_hessian":[7.007E3,2.732E3,4.275E3,1.15E3,1.582E3,1.694E3,2.581E3,1.122E3,2.8E1,1.314E3,2.68E2,1.416E3,2.78E2,1.625E3,9.56E2,1.09E3,3.2E1,8E0,2E1,1.176E3,1.38E2,2.63E2,5E0,1.397E3,1.9E1,5.5E1,2.23E2,1.613E3,1.2E1,3E0,9.53E2,1.085E3,5E0,1.6E1,1.6E1,3E0,5E0,9E0,1.1E1,3.89E2,7.87E2,1.35E2,3E0,7.1E1,1.92E2,2E0,3E0,1.262E3,1.35E2,1.3E1,6E0,3.1E1,2.4E1,2.3E1,2E2,1.602E3,1.1E1,1E1,2E0,3E0,9.5E2,1.064E3,2.1E1,1E1,6E0,1E0,1.5E1,1E0,2E0,3E0,2E0,7E0,2E0,2E0,9E0,3E2,8.9E1,1.1E1,7.76E2,1.28E2,7E0,1E0,2E0,4.2E1,2.9E1,1.87E2,5E0,1E0,1E0,1.206E3,5.6E1,1.08E2,2.7E1,8E0,5E0,5E0,1E0,1.3E1,1.8E1,4E0,2E1,1.6E1,7E0,5.5E1,1.45E2,3.41E2,1.261E3,2E0,9E0,2E0,8E0,1E0,2E0,3E0,9.47E2],"tree_param":{"num_deleted":"0","num_feature":"5","num_nodes":"115","size_leaf_vector":"1"}},{"base_weights":[1.3355273E-3,-5.024745E-1,2.535099E-1,-7.351684E-1,-3.589436E-1,6.777771E-2,4.95322E-1,-6.75885E-1,-1.6786851E0,-3.3503917E-1,-3.1915894E0,1.0606719E0,3.5972435E-2,4.1752613E-1,1.0116026E0,-7.303888E-1,4.6226776E-1,-8.161277E-1,-1.3658797E0,1.5358106E0,-3.6790273E-1,-3.9253595E0,7.3198247E-1,1.2760266E0,-2.4574585E0,-9.942408E-2,3.0311108E-1,4.4188333E-1,-1.6263254E0,3.3903809E0,7.8228784E-1,-2.5068257E0,-7.025157E-1,1.2412903E0,-3.3986816E-1,-1.1285706E0,-1.2156863E0,2.190143E0,-1.1978028E0,-3.930163E-1,1.1669179E0,-5.2590027E0,-2.767868E0,3.5161278E-1,1.9042358E0,-6.2861377E-1,1.7570069E-2,4.8389688E0,2.3879449E-1,4.0198427E-1,1.3127987E0,-3.312435E0,2.2190988E0,1.7487115E0,7.7503257E0,2.6397629E0,4.9822423E-1,-9.25795E-1,-3.2364258E-1,-3.1717438E-1,-1.7516577E-1,4.6845502E-1,-3.2814944E-1,-1.5859783E-1,2.7185062E-1,-1.9516732E-1,-4.8890278E-1,-1.21614076E-1,1.0053062E0,-1.1188548E-1,-1.2920446E0,-3.4432203E-1,6.1541104E-1,-4.1015628E-1,-1.8301637E0,1.7944336E-2,-9.541103E-1,-1.3794708E-1,3.049265E-1,1.0399268E0,3.4770867E-1,1.6944431E-1,-2.9853112E-1,5.600928E-1,-6.9267256E-3,3.854883E0,2.2230633E-1,1.21526584E-1,-2.4870308E-1,1.2336766E-1,-1.0649414E0,-1.4625902E-2,4.7065547E-1,-1.5876527E0,-2.7559206E-1,1.7310243E0,-5.6599736E-1,1.4293488E0,-1.8106802E-1,2.937378E-1,2.6726222E0,5.325928E-1,1.8269532E0,2.2821954E-2,3.9540508E-1],"categories":[],"categories_nodes":[],"categories_segments":[],"categories_sizes":[],"default_left":[0,0,0,0,0,0,0,0,0,0,0,0,0,0,0,0,0,0,0,0,0,0,0,0,0,0,0,0,0,0,0,0,0,0,0,0,0,0,0,0,0,0,0,0,0,0,0,0,0,0,0,0,0,0,0,0,0,0,0,0,0,0,0,0,0,0,0,0,0,0,0,0,0,0,0,0,0,0,0,0,0,0,0,0,0,0,0,0,0,0,0,0,0,0,0,0,0,0,0,0,0,0,0,0,0],"id":18,"left_children":[1,3,5,7,9,11,13,15,17,19,21,23,25,27,29,31,33,-1,35,37,39,41,-1,43,-1,45,47,49,51,53,55,57,59,61,63,-1,65,67,-1,69,71,73,75,77,79,81,83,85,87,89,91,93,95,97,99,101,103,-1,-1,-1,-1,-1,-1,-1,-1,-1,-1,-1,-1,-1,-1,-1,-1,-1,-1,-1,-1,-1,-1,-1,-1,-1,-1,-1,-1,-1,-1,-1,-1,-1,-1,-1,-1,-1,-1,-1,-1,-1,-1,-1,-1,-1,-1,-1,-1],"loss_changes":[8.904797E2,7.782239E1,2.0975171E2,4.870334E1,9.697887E1,8.342586E1,8.107144E1,5.2445923E1,1.3229065E1,8.891577E1,5.9164635E1,1.7383798E2,9.2696754E1,8.858481E1,1.4190234E2,3.79498E1,2.4792267E1,0E0,1.05411E1,9.9181244E1,5.4922455E1,2.4242554E0,0E0,4.63692E1,0E0,1.0532352E2,2.5031647E2,6.0108826E1,1.4351057E2,1.5107144E2,1.2690158E2,6.595375E0,3.2669403E1,1.666339E1,5.183871E0,0E0,8.532047E0,7.06594E1,0E0,1.07627884E2,4.9440132E1,4.759926E0,9.521576E0,1.8808678E1,5.1861618E1,1.352749E2,1.04865326E2,3.844044E2,1.5144759E2,6.2447296E1,2.657228E1,6.622478E1,1.12942444E2,1.3056664E2,3.8340393E1,8.462654E1,7.3267914E1,0E0,0E0,0E0,0E0,0E0,0E0,0E0,0E0,0E0,0E0,0E0,0E0,0E0,0E0,0E0,0E0,0E0,0E0,0E0,0E0,0E0,0E0,0E0,0E0,0E0,0E0,0E0,0E0,0E0,0E0,0E0,0E0,0E0,0E0,0E0,0E0,0E0,0E0,0E0,0E0,0E0,0E0,0E0,0E0,0E0,0E0,0E0,0E0],"parents":[2147483647,0,0,1,1,2,2,3,3,4,4,5,5,6,6,7,7,8,8,9,9,10,10,11,11,12,12,13,13,14,14,15,15,16,16,18,18,19,19,20,20,21,21,23,23,25,25,26,26,27,27,28,28,29,29,30,30,31,31,32,32,33,33,34,34,36,36,37,37,39,39,40,40,41,41,42,42,43,43,44,44,45,45,46,46,47,47,48,48,49,49,50,50,51,51,52,52,53,53,54,54,55,55,56,56],"right_children":[2,4,6,8,10,12,14,16,18,20,22,24,26,28,30,32,34,-1,36,38,40,42,-1,44,-1,46,48,50,52,54,56,58,60,62,64,-1,66,68,-1,70,72,74,76,78,80,82,84,86,88,90,92,94,96,98,100,102,104,-1,-1,-1,-1,-1,-1,-1,-1,-1,-1,-1,-1,-1,-1,-1,-1,-1,-1,-1,-1,-1,-1,-1,-1,-1,-1,-1,-1,-1,-1,-1,-1,-1,-1,-1,-1,-1,-1,-1,-1,-1,-1,-1,-1,-1,-1,-1,-1],"split_conditions":[2.314E3,2.022E3,2.577E3,2.016E3,2.9097053E-1,2.318E3,7.333394E-2,2.014E3,2.018E3,2.016E3,2.314E3,2.334E3,4.16514E1,2.711043E2,2.606E3,-2.3056349E-1,9.8735E0,-8.161277E-1,-7.326678E-2,1.992495E2,2.319E3,6.40689E1,7.3198247E-1,2.322E3,-2.4574585E0,-2.7507793E-2,4.24716E1,2.757E3,5.212167E2,2.598E3,8.2312055E-2,4.70656E1,1.998E3,2.019E3,6.480282E-2,-1.1285706E0,2.021E3,-3.675457E-2,-1.1978028E0,2.318E3,5.08959E1,1.13616E1,1.1081495E2,2.317E3,2.316E3,1.1549E1,-2.6951756E-2,-1.8691588E-2,1.0186128E-1,2.763E3,2.763E3,2.634E3,-9.082652E-3,9.509319E-2,8.2312055E-2,9.46972E1,8.00005E1,-9.25795E-1,-3.2364258E-1,-3.1717438E-1,-1.7516577E-1,4.6845502E-1,-3.2814944E-1,-1.5859783E-1,2.7185062E-1,-1.9516732E-1,